{"learner":{"attributes":{"scikit_learn":"{\"n_estimators\": 2500, \"objective\": \"reg:squarederror\", \"max_depth\": 3, \"learning_rate\": 0.04, \"verbosity\": null, \"booster\": null, \"tree_method\": null, \"gamma\": 0.0468, \"min_child_weight\": 1.7817, \"max_delta_step\": null, \"subsample\": 0.5213, \"colsample_bytree\": 0.4603, \"colsample_bylevel\": null, \"colsample_bynode\": null, \"reg_alpha\": 0.464, \"reg_lambda\": 0.8571, \"scale_pos_weight\": null, \"base_score\": null, \"missing\": NaN, \"num_parallel_tree\": null, \"kwargs\": {\"silent\": 1, \"nthread\": -1}, \"random_state\": 7, \"n_jobs\": null, \"monotone_constraints\": null, \"interaction_constraints\": null, \"importance_type\": \"gain\", \"gpu_id\": null, \"validate_parameters\": null, \"_estimator_type\": \"regressor\"}"},"feature_names":["latitude","longitude","Temp_pre_7","Hum_pre_7","Prec_pre_7","Wind_pre_7","discovery_month_Apr","discovery_month_Aug","discovery_month_Dec","discovery_month_Feb","discovery_month_Jan","discovery_month_Jul","discovery_month_Jun","discovery_month_Mar","discovery_month_May","discovery_month_Nov","discovery_month_Oct","discovery_month_Sep","Vegetation_0","Vegetation_4","Vegetation_9","Vegetation_12","Vegetation_14","Vegetation_15","Vegetation_16"],"feature_types":["float","float","float","float","float","float","int","int","int","int","int","int","int","int","int","int","int","int","int","int","int","int","int","int","int"],"gradient_booster":{"model":{"gbtree_model_param":{"num_trees":"2500","size_leaf_vector":"0"},"tree_info":[0,0,0,0,0,0,0,0,0,0,0,0,0,0,0,0,0,0,0,0,0,0,0,0,0,0,0,0,0,0,0,0,0,0,0,0,0,0,0,0,0,0,0,0,0,0,0,0,0,0,0,0,0,0,0,0,0,0,0,0,0,0,0,0,0,0,0,0,0,0,0,0,0,0,0,0,0,0,0,0,0,0,0,0,0,0,0,0,0,0,0,0,0,0,0,0,0,0,0,0,0,0,0,0,0,0,0,0,0,0,0,0,0,0,0,0,0,0,0,0,0,0,0,0,0,0,0,0,0,0,0,0,0,0,0,0,0,0,0,0,0,0,0,0,0,0,0,0,0,0,0,0,0,0,0,0,0,0,0,0,0,0,0,0,0,0,0,0,0,0,0,0,0,0,0,0,0,0,0,0,0,0,0,0,0,0,0,0,0,0,0,0,0,0,0,0,0,0,0,0,0,0,0,0,0,0,0,0,0,0,0,0,0,0,0,0,0,0,0,0,0,0,0,0,0,0,0,0,0,0,0,0,0,0,0,0,0,0,0,0,0,0,0,0,0,0,0,0,0,0,0,0,0,0,0,0,0,0,0,0,0,0,0,0,0,0,0,0,0,0,0,0,0,0,0,0,0,0,0,0,0,0,0,0,0,0,0,0,0,0,0,0,0,0,0,0,0,0,0,0,0,0,0,0,0,0,0,0,0,0,0,0,0,0,0,0,0,0,0,0,0,0,0,0,0,0,0,0,0,0,0,0,0,0,0,0,0,0,0,0,0,0,0,0,0,0,0,0,0,0,0,0,0,0,0,0,0,0,0,0,0,0,0,0,0,0,0,0,0,0,0,0,0,0,0,0,0,0,0,0,0,0,0,0,0,0,0,0,0,0,0,0,0,0,0,0,0,0,0,0,0,0,0,0,0,0,0,0,0,0,0,0,0,0,0,0,0,0,0,0,0,0,0,0,0,0,0,0,0,0,0,0,0,0,0,0,0,0,0,0,0,0,0,0,0,0,0,0,0,0,0,0,0,0,0,0,0,0,0,0,0,0,0,0,0,0,0,0,0,0,0,0,0,0,0,0,0,0,0,0,0,0,0,0,0,0,0,0,0,0,0,0,0,0,0,0,0,0,0,0,0,0,0,0,0,0,0,0,0,0,0,0,0,0,0,0,0,0,0,0,0,0,0,0,0,0,0,0,0,0,0,0,0,0,0,0,0,0,0,0,0,0,0,0,0,0,0,0,0,0,0,0,0,0,0,0,0,0,0,0,0,0,0,0,0,0,0,0,0,0,0,0,0,0,0,0,0,0,0,0,0,0,0,0,0,0,0,0,0,0,0,0,0,0,0,0,0,0,0,0,0,0,0,0,0,0,0,0,0,0,0,0,0,0,0,0,0,0,0,0,0,0,0,0,0,0,0,0,0,0,0,0,0,0,0,0,0,0,0,0,0,0,0,0,0,0,0,0,0,0,0,0,0,0,0,0,0,0,0,0,0,0,0,0,0,0,0,0,0,0,0,0,0,0,0,0,0,0,0,0,0,0,0,0,0,0,0,0,0,0,0,0,0,0,0,0,0,0,0,0,0,0,0,0,0,0,0,0,0,0,0,0,0,0,0,0,0,0,0,0,0,0,0,0,0,0,0,0,0,0,0,0,0,0,0,0,0,0,0,0,0,0,0,0,0,0,0,0,0,0,0,0,0,0,0,0,0,0,0,0,0,0,0,0,0,0,0,0,0,0,0,0,0,0,0,0,0,0,0,0,0,0,0,0,0,0,0,0,0,0,0,0,0,0,0,0,0,0,0,0,0,0,0,0,0,0,0,0,0,0,0,0,0,0,0,0,0,0,0,0,0,0,0,0,0,0,0,0,0,0,0,0,0,0,0,0,0,0,0,0,0,0,0,0,0,0,0,0,0,0,0,0,0,0,0,0,0,0,0,0,0,0,0,0,0,0,0,0,0,0,0,0,0,0,0,0,0,0,0,0,0,0,0,0,0,0,0,0,0,0,0,0,0,0,0,0,0,0,0,0,0,0,0,0,0,0,0,0,0,0,0,0,0,0,0,0,0,0,0,0,0,0,0,0,0,0,0,0,0,0,0,0,0,0,0,0,0,0,0,0,0,0,0,0,0,0,0,0,0,0,0,0,0,0,0,0,0,0,0,0,0,0,0,0,0,0,0,0,0,0,0,0,0,0,0,0,0,0,0,0,0,0,0,0,0,0,0,0,0,0,0,0,0,0,0,0,0,0,0,0,0,0,0,0,0,0,0,0,0,0,0,0,0,0,0,0,0,0,0,0,0,0,0,0,0,0,0,0,0,0,0,0,0,0,0,0,0,0,0,0,0,0,0,0,0,0,0,0,0,0,0,0,0,0,0,0,0,0,0,0,0,0,0,0,0,0,0,0,0,0,0,0,0,0,0,0,0,0,0,0,0,0,0,0,0,0,0,0,0,0,0,0,0,0,0,0,0,0,0,0,0,0,0,0,0,0,0,0,0,0,0,0,0,0,0,0,0,0,0,0,0,0,0,0,0,0,0,0,0,0,0,0,0,0,0,0,0,0,0,0,0,0,0,0,0,0,0,0,0,0,0,0,0,0,0,0,0,0,0,0,0,0,0,0,0,0,0,0,0,0,0,0,0,0,0,0,0,0,0,0,0,0,0,0,0,0,0,0,0,0,0,0,0,0,0,0,0,0,0,0,0,0,0,0,0,0,0,0,0,0,0,0,0,0,0,0,0,0,0,0,0,0,0,0,0,0,0,0,0,0,0,0,0,0,0,0,0,0,0,0,0,0,0,0,0,0,0,0,0,0,0,0,0,0,0,0,0,0,0,0,0,0,0,0,0,0,0,0,0,0,0,0,0,0,0,0,0,0,0,0,0,0,0,0,0,0,0,0,0,0,0,0,0,0,0,0,0,0,0,0,0,0,0,0,0,0,0,0,0,0,0,0,0,0,0,0,0,0,0,0,0,0,0,0,0,0,0,0,0,0,0,0,0,0,0,0,0,0,0,0,0,0,0,0,0,0,0,0,0,0,0,0,0,0,0,0,0,0,0,0,0,0,0,0,0,0,0,0,0,0,0,0,0,0,0,0,0,0,0,0,0,0,0,0,0,0,0,0,0,0,0,0,0,0,0,0,0,0,0,0,0,0,0,0,0,0,0,0,0,0,0,0,0,0,0,0,0,0,0,0,0,0,0,0,0,0,0,0,0,0,0,0,0,0,0,0,0,0,0,0,0,0,0,0,0,0,0,0,0,0,0,0,0,0,0,0,0,0,0,0,0,0,0,0,0,0,0,0,0,0,0,0,0,0,0,0,0,0,0,0,0,0,0,0,0,0,0,0,0,0,0,0,0,0,0,0,0,0,0,0,0,0,0,0,0,0,0,0,0,0,0,0,0,0,0,0,0,0,0,0,0,0,0,0,0,0,0,0,0,0,0,0,0,0,0,0,0,0,0,0,0,0,0,0,0,0,0,0,0,0,0,0,0,0,0,0,0,0,0,0,0,0,0,0,0,0,0,0,0,0,0,0,0,0,0,0,0,0,0,0,0,0,0,0,0,0,0,0,0,0,0,0,0,0,0,0,0,0,0,0,0,0,0,0,0,0,0,0,0,0,0,0,0,0,0,0,0,0,0,0,0,0,0,0,0,0,0,0,0,0,0,0,0,0,0,0,0,0,0,0,0,0,0,0,0,0,0,0,0,0,0,0,0,0,0,0,0,0,0,0,0,0,0,0,0,0,0,0,0,0,0,0,0,0,0,0,0,0,0,0,0,0,0,0,0,0,0,0,0,0,0,0,0,0,0,0,0,0,0,0,0,0,0,0,0,0,0,0,0,0,0,0,0,0,0,0,0,0,0,0,0,0,0,0,0,0,0,0,0,0,0,0,0,0,0,0,0,0,0,0,0,0,0,0,0,0,0,0,0,0,0,0,0,0,0,0,0,0,0,0,0,0,0,0,0,0,0,0,0,0,0,0,0,0,0,0,0,0,0,0,0,0,0,0,0,0,0,0,0,0,0,0,0,0,0,0,0,0,0,0,0,0,0,0,0,0,0,0,0,0,0,0,0,0,0,0,0,0,0,0,0,0,0,0,0,0,0,0,0,0,0,0,0,0,0,0,0,0,0,0,0,0,0,0,0,0,0,0,0,0,0,0,0,0,0,0,0,0,0,0,0,0,0,0,0,0,0,0,0,0,0,0,0,0,0,0,0,0,0,0,0,0,0,0,0,0,0,0,0,0,0,0,0,0,0,0,0,0,0,0,0,0,0,0,0,0,0,0,0,0,0,0,0,0,0,0,0,0,0,0,0,0,0,0,0,0,0,0,0,0,0,0,0,0,0,0,0,0,0,0,0,0,0,0,0,0,0,0,0,0,0,0,0,0,0,0,0,0,0,0,0,0,0,0,0,0,0,0,0,0,0,0,0,0,0,0,0,0,0,0,0,0,0,0,0,0,0,0,0,0,0,0,0,0,0,0,0,0,0,0,0,0,0,0,0,0,0,0,0,0,0,0,0,0,0,0,0,0,0,0,0,0,0,0,0,0,0,0,0,0,0,0,0,0,0,0,0,0,0,0,0,0,0,0,0,0,0,0,0,0,0,0,0,0,0,0,0,0,0,0,0,0,0,0,0,0,0,0,0,0,0,0,0,0,0,0,0,0,0,0,0,0,0,0,0,0,0,0,0,0,0,0,0,0,0,0,0,0,0,0,0,0,0,0,0,0,0,0,0,0,0,0,0,0,0,0,0,0,0,0,0,0,0,0,0,0,0,0,0,0,0,0,0,0,0,0,0,0,0,0,0,0,0,0,0,0,0,0,0,0,0,0,0,0,0,0,0,0,0,0,0,0,0,0,0,0,0,0,0,0,0,0,0,0,0,0,0,0,0,0,0,0,0,0,0,0,0,0,0,0,0,0,0,0,0,0,0,0,0,0,0,0,0,0,0,0,0,0,0,0,0,0,0,0,0,0,0,0,0,0,0,0,0,0,0,0,0,0,0,0,0,0,0,0,0,0,0,0,0,0,0,0,0,0,0,0,0,0,0,0,0,0,0,0,0,0,0,0,0,0,0,0,0,0,0,0,0,0,0,0,0,0,0,0,0,0,0,0,0,0,0,0,0,0,0,0,0,0,0,0,0,0,0,0,0,0,0,0,0,0,0,0,0,0,0,0,0,0,0,0,0,0,0,0,0,0,0,0,0,0,0,0,0,0,0,0,0,0,0,0,0,0,0,0,0,0,0,0,0,0,0,0,0,0,0,0,0,0,0,0,0,0,0,0,0,0,0,0,0,0,0,0,0,0,0,0,0,0,0,0,0,0,0,0,0,0,0,0,0,0,0,0,0,0,0,0,0,0,0,0,0,0,0,0,0,0,0,0,0,0,0,0,0,0,0,0,0,0,0,0,0,0,0,0,0,0,0,0,0,0,0,0,0,0,0,0,0,0,0,0,0,0,0,0,0,0,0,0,0,0,0,0,0,0,0,0,0,0,0,0,0,0,0,0,0,0,0,0,0,0,0,0,0,0,0,0,0,0,0,0,0,0,0,0,0,0,0,0,0,0,0,0,0,0,0,0,0,0,0,0,0,0,0,0,0,0,0,0,0,0],"trees":[{"base_weights":[2.1328604E3,1.5683271E3,3.7927277E4,5.3587817E3,2.646381E2,3.6594766E4,1.028708E5,3.923432E3,7.243877E3,2.5519467E2,6.664551E3,3.0906412E4,4.6426984E4,1.3656124E4,1.9245075E5],"categories":[],"categories_nodes":[],"categories_segments":[],"categories_sizes":[],"default_left":[true,true,true,true,true,true,true,false,false,false,false,false,false,false,false],"id":0,"left_children":[1,3,5,7,9,11,13,-1,-1,-1,-1,-1,-1,-1,-1],"loss_changes":[4.097671E11,9.866648E10,2.4020484E10,1.3801734E10,8.965052E8,1.6100164E10,4.455637E10,0E0,0E0,0E0,0E0,0E0,0E0,0E0,0E0],"parents":[2147483647,0,0,1,1,2,2,3,3,4,4,5,5,6,6],"right_children":[2,4,6,8,10,12,14,-1,-1,-1,-1,-1,-1,-1,-1],"split_conditions":[6.193155E1,-1.0081708E2,3.255E1,4.0488056E1,3.33443E1,6.57165E1,6.419165E1,1.5693727E2,2.8975507E2,1.0207787E1,2.6658203E2,1.2362565E3,1.8570793E3,5.4624493E2,7.69803E3],"split_indices":[0,1,4,0,2,0,0,0,0,0,0,0,0,0,0],"split_type":[0,0,0,0,0,0,0,0,0,0,0,0,0,0,0],"sum_hessian":[2.028E4,1.9966E4,3.14E2,5.109E3,1.4857E4,3.09E2,5E0,2.902E3,2.207E3,1.4836E4,2.1E1,1.98E2,1.11E2,3E0,2E0],"tree_param":{"num_deleted":"0","num_feature":"25","num_nodes":"15","size_leaf_vector":"0"}},{"base_weights":[2.063413E3,1.601097E3,6.766469E3,2.4406091E3,5.7740424E2,9.986933E3,2.962894E3,1.3612836E3,5.8445615E3,2.2858049E2,8.608846E2,7.866389E3,2.5625922E4,1.018715E4,1.3111953E3],"categories":[],"categories_nodes":[],"categories_segments":[],"categories_sizes":[],"default_left":[true,true,true,true,true,true,true,false,false,false,false,false,false,false,false],"id":1,"left_children":[1,3,5,7,9,11,13,-1,-1,-1,-1,-1,-1,-1,-1],"loss_changes":[4.406126E10,1.5859798E10,2.2193062E10,3.7246743E10,8.222405E8,3.2388678E10,9.926443E9,0E0,0E0,0E0,0E0,0E0,0E0,0E0,0E0],"parents":[2147483647,0,0,1,1,2,2,3,3,4,4,5,5,6,6],"right_children":[2,4,6,8,10,12,14,-1,-1,-1,-1,-1,-1,-1,-1],"split_conditions":[5E-1,5.3777557E1,2.1438808E1,1.5314245E1,1.3494783E1,6.278015E1,2.3841034E1,5.445134E1,2.3378246E2,9.143219E0,3.4435383E1,3.1465555E2,1.0250369E3,4.07486E2,5.244781E1],"split_indices":[12,3,2,2,2,3,3,0,0,0,0,0,0,0,0],"split_type":[0,0,0,0,0,0,0,0,0,0,0,0,0,0,0],"sum_hessian":[2.0268E4,1.8455E4,1.813E3,1.0139E4,8.316E3,9.81E2,8.32E2,7.699E3,2.44E3,3.729E3,4.587E3,8.65E2,1.16E2,1.54E2,6.78E2],"tree_param":{"num_deleted":"0","num_feature":"25","num_nodes":"15","size_leaf_vector":"0"}},{"base_weights":[1.97113E3,2.8949732E4,1.3558522E3,2.7966146E4,1.7478875E5,4.9934033E3,1.667954E2,7.15379E2,3.2999547E4,4.883139E3,2.722012E4,1.3687897E3,1.1118644E2],"categories":[],"categories_nodes":[],"categories_segments":[],"categories_sizes":[],"default_left":[true,true,true,true,false,true,true,false,false,false,false,false,false],"id":2,"left_children":[1,3,5,7,-1,9,11,-1,-1,-1,-1,-1,-1],"loss_changes":[3.3563574E11,6.04836E10,8.551761E10,6.1546824E10,0E0,1.1823612E10,9.9593344E8,0E0,0E0,0E0,0E0,0E0,0E0],"parents":[2147483647,0,0,1,1,2,2,3,3,5,5,6,6],"right_children":[2,4,6,8,-1,10,12,-1,-1,-1,-1,-1,-1],"split_conditions":[-1.2390875E2,-1.2392403E2,-1.0081708E2,5E-1,6.99155E3,-1.00945465E2,-9.843671E1,2.861516E1,1.3199818E3,1.9532556E2,1.0888047E3,5.4751587E1,4.4474573E0],"split_indices":[1,1,1,18,0,1,1,0,0,0,0,0,0],"split_type":[0,0,0,0,0,0,0,0,0,0,0,0,0],"sum_hessian":[2.0221E4,4.5E2,1.9771E4,4.48E2,2E0,4.87E3,1.4901E4,7E1,3.78E2,4.847E3,2.3E1,6.58E2,1.4243E4],"tree_param":{"num_deleted":"0","num_feature":"25","num_nodes":"13","size_leaf_vector":"0"}},{"base_weights":[1.9411228E3,1.3979402E3,3.6363562E4,7.2021185E2,3.7234187E3,2.317714E5,3.4491387E4,5.546381E2,2.5413567E3,2.9542769E3,1.0197817E4,2.0403436E4,4.6262492E4],"categories":[],"categories_nodes":[],"categories_segments":[],"categories_sizes":[],"default_left":[true,true,true,true,true,false,true,false,false,false,false,false,false],"id":3,"left_children":[1,3,5,7,9,-1,11,-1,-1,-1,-1,-1,-1],"loss_changes":[3.813675E11,3.1649145E10,1.09066355E11,4.6881997E9,2.2541595E10,0E0,5.1403915E10,0E0,0E0,0E0,0E0,0E0,0E0],"parents":[2147483647,0,0,1,1,2,2,3,3,4,4,6,6],"right_children":[2,4,6,8,10,-1,12,-1,-1,-1,-1,-1,-1],"split_conditions":[6.1941353E1,3.9606167E1,6.207E1,5E-1,2.4223038E1,9.270856E3,5E-1,2.2185524E1,1.0165427E2,1.18171074E2,4.079127E2,8.161374E2,1.8504996E3],"split_indices":[0,0,0,12,2,0,12,0,0,0,0,0,0],"split_type":[0,0,0,0,0,0,0,0,0,0,0,0,0],"sum_hessian":[2.0398E4,2.0082E4,3.16E2,1.5551E4,4.531E3,2E0,3.14E2,1.4256E4,1.295E3,4.051E3,4.8E2,1.44E2,1.7E2],"tree_param":{"num_deleted":"0","num_feature":"25","num_nodes":"13","size_leaf_vector":"0"}},{"base_weights":[1.8540399E3,2.8508424E4,1.2942168E3,2.746696E4,1.697208E5,4.8000767E3,1.4047513E2,9.7783325E2,3.1818668E4,1.602323E3,5.679174E3,1.2550867E3,8.818184E1],"categories":[],"categories_nodes":[],"categories_segments":[],"categories_sizes":[],"default_left":[true,true,true,true,false,true,true,false,false,false,false,false,false],"id":4,"left_children":[1,3,5,7,-1,9,11,-1,-1,-1,-1,-1,-1],"loss_changes":[2.994754E11,5.672226E10,7.952073E10,4.7334E10,0E0,1.3676413E10,8.621315E8,0E0,0E0,0E0,0E0,0E0,0E0],"parents":[2147483647,0,0,1,1,2,2,3,3,5,5,6,6],"right_children":[2,4,6,8,-1,10,12,-1,-1,-1,-1,-1,-1],"split_conditions":[-1.2390582E2,-1.23920555E2,-1.0081708E2,5E-1,6.7888315E3,-1.2018186E2,-9.8437584E1,3.911333E1,1.2727467E3,6.409292E1,2.2716695E2,5.0203465E1,3.5272734E0],"split_indices":[1,1,1,18,0,1,1,0,0,0,0,0,0],"split_type":[0,0,0,0,0,0,0,0,0,0,0,0,0],"sum_hessian":[2.0071E4,4.12E2,1.9659E4,4.1E2,2E0,4.867E3,1.4792E4,5.8E1,3.52E2,1.05E3,3.817E3,6.62E2,1.413E4],"tree_param":{"num_deleted":"0","num_feature":"25","num_nodes":"13","size_leaf_vector":"0"}},{"base_weights":[1.7622495E3,1.4515728E3,4.3379683E3,1.1157538E3,4.318304E3,5.796266E3,2.3008474E3,1.5173353E3,5.718282E2,3.9465864E3,1.9844854E4,5.517335E3,1.7560154E4,6.203865E3,1.556151E3],"categories":[],"categories_nodes":[],"categories_segments":[],"categories_sizes":[],"default_left":[true,true,true,true,true,true,true,false,false,false,false,false,false,false,false],"id":5,"left_children":[1,3,5,7,9,11,13,-1,-1,-1,-1,-1,-1,-1,-1],"loss_changes":[1.6114827E10,1.7303204E10,6.42868E9,3.5146445E9,1.0811306E10,4.0607785E9,2.6246533E9,0E0,0E0,0E0,0E0,0E0,0E0,0E0,0E0],"parents":[2147483647,0,0,1,1,2,2,3,3,4,4,5,5,6,6],"right_children":[2,4,6,8,10,12,14,-1,-1,-1,-1,-1,-1,-1,-1],"split_conditions":[5E-1,5E-1,4.591519E1,5.6352318E1,5E-1,4.494966E1,1.7121856E0,6.0693413E1,2.2873127E1,1.5786345E2,7.937941E2,2.2069339E2,7.024061E2,2.481546E2,6.224604E1],"split_indices":[11,7,3,3,19,3,5,0,0,0,0,0,0,0,0],"split_type":[0,0,0,0,0,0,0,0,0,0,0,0,0,0,0],"sum_hessian":[2.0144E4,1.7977E4,2.167E3,1.6093E4,1.884E3,1.262E3,9.05E2,9.257E3,6.836E3,1.841E3,4.3E1,1.234E3,2.8E1,1.44E2,7.61E2],"tree_param":{"num_deleted":"0","num_feature":"25","num_nodes":"15","size_leaf_vector":"0"}},{"base_weights":[1.6669183E3,2.4595795E4,1.1512949E3,2.3724846E4,1.1845172E5,4.43845E3,6.2713806E1,2.5995564E4,1.00424896E3,4.3536265E3,1.4851803E5,1.4437538E3,3.2296444E1],"categories":[],"categories_nodes":[],"categories_segments":[],"categories_sizes":[],"default_left":[true,true,true,true,false,true,true,false,false,false,false,false,false],"id":6,"left_children":[1,3,5,7,-1,9,11,-1,-1,-1,-1,-1,-1],"loss_changes":[2.3805886E11,3.3792066E10,7.0478135E10,2.2670754E10,0E0,5.9328676E10,6.2153965E8,0E0,0E0,0E0,0E0,0E0,0E0],"parents":[2147483647,0,0,1,1,2,2,3,3,5,5,6,6],"right_children":[2,4,6,8,-1,10,12,-1,-1,-1,-1,-1,-1],"split_conditions":[-1.2390875E2,-1.23920555E2,-1.0093272E2,5E-1,4.738069E3,-1.0093504E2,-9.930924E1,1.0398225E3,4.0169956E1,1.7414505E2,5.940721E3,5.775015E1,1.2918577E0],"split_indices":[1,1,1,21,0,1,1,0,0,0,0,0,0],"split_type":[0,0,0,0,0,0,0,0,0,0,0,0,0],"sum_hessian":[2.0137E4,4.42E2,1.9695E4,4.39E2,3E0,4.899E3,1.4796E4,3.99E2,4E1,4.897E3,2E0,3.18E2,1.4478E4],"tree_param":{"num_deleted":"0","num_feature":"25","num_nodes":"13","size_leaf_vector":"0"}},{"base_weights":[1.6180022E3,2.560793E4,1.1175824E3,1.3713712E4,3.541304E4,4.4561157E3,1.0929466E2,9.836249E2,1.7460875E4,2.1454936E4,4.260344E4,3.8309597E3,8.524393E3,1.9515973E3,5.1220505E1],"categories":[],"categories_nodes":[],"categories_segments":[],"categories_sizes":[],"default_left":[true,true,true,true,true,true,true,false,false,false,false,false,false,false,false],"id":7,"left_children":[1,3,5,7,9,11,13,-1,-1,-1,-1,-1,-1,-1,-1],"loss_changes":[2.4373602E11,4.7966077E10,6.695624E10,8.994079E9,2.1984936E10,1.1706458E10,1.6344941E9,0E0,0E0,0E0,0E0,0E0,0E0,0E0,0E0],"parents":[2147483647,0,0,1,1,2,2,3,3,4,4,5,5,6,6],"right_children":[2,4,6,8,10,12,14,-1,-1,-1,-1,-1,-1,-1,-1],"split_conditions":[-1.4130025E2,-1.537583E2,-1.0291617E2,5E-1,1.1780971E1,5E-1,-1.00324356E2,3.9344994E1,6.98435E2,8.581974E2,1.7041376E3,1.5323839E2,3.409757E2,7.806389E1,2.0488203E0],"split_indices":[1,1,1,18,2,20,1,0,0,0,0,0,0,0,0],"split_type":[0,0,0,0,0,0,0,0,0,0,0,0,0,0,0],"sum_hessian":[2.0304E4,4.14E2,1.989E4,1.88E2,2.26E2,4.613E3,1.5277E4,4.3E1,1.45E2,7.8E1,1.48E2,4E3,6.13E2,4.66E2,1.4811E4],"tree_param":{"num_deleted":"0","num_feature":"25","num_nodes":"15","size_leaf_vector":"0"}},{"base_weights":[1.6145305E3,1.0980906E3,7.0398467E3,7.9091315E2,3.4742312E3,2.3187158E3,1.9708336E4,6.908377E2,2.4271162E3,4.1851265E3,4.1976242E2,2.8466177E3,5.2942194E2,1.885791E4,7.564117E4],"categories":[],"categories_nodes":[],"categories_segments":[],"categories_sizes":[],"default_left":[true,true,true,true,true,true,true,false,false,false,false,false,false,false,false],"id":8,"left_children":[1,3,5,7,9,11,13,-1,-1,-1,-1,-1,-1,-1,-1],"loss_changes":[5.6632357E10,1.3470708E10,1.0503774E11,2.6752573E9,4.586365E9,1.2085678E9,2.145991E10,0E0,0E0,0E0,0E0,0E0,0E0,0E0,0E0],"parents":[2147483647,0,0,1,1,2,2,3,3,4,4,5,5,6,6],"right_children":[2,4,6,8,10,12,14,-1,-1,-1,-1,-1,-1,-1,-1],"split_conditions":[5E-1,5E-1,5E-1,5E-1,5E-1,1.5E-1,3.26E1,2.7633507E1,9.708465E1,1.6740506E2,1.6790497E1,1.1386471E2,2.1176876E1,7.543164E2,3.0256467E3],"split_indices":[12,11,18,20,24,4,4,0,0,0,0,0,0,0,0],"split_type":[0,0,0,0,0,0,0,0,0,0,0,0,0,0,0],"sum_hessian":[2.0214E4,1.8458E4,1.756E3,1.6346E4,2.112E3,1.28E3,4.76E2,1.5405E4,9.41E2,1.713E3,3.99E2,9.88E2,2.92E2,4.7E2,6E0],"tree_param":{"num_deleted":"0","num_feature":"25","num_nodes":"15","size_leaf_vector":"0"}},{"base_weights":[1.5188075E3,1.0808583E3,5.977174E3,8.9131E2,3.7690103E3,9.315648E3,1.5887006E3,4.5773035E2,1.658249E3,5.063143E3,-3.0179642E2,5.1979204E3,1.4072901E4,5.432339E2,2.5915415E3],"categories":[],"categories_nodes":[],"categories_segments":[],"categories_sizes":[],"default_left":[true,true,true,true,true,true,true,false,false,false,false,false,false,false,false],"id":9,"left_children":[1,3,5,7,9,11,13,-1,-1,-1,-1,-1,-1,-1,-1],"loss_changes":[3.9550657E10,9.396939E9,2.6532475E10,5.7301084E9,6.4013804E9,2.009165E10,8.206167E8,0E0,0E0,0E0,0E0,0E0,0E0,0E0,0E0],"parents":[2147483647,0,0,1,1,2,2,3,3,4,4,5,5,6,6],"right_children":[2,4,6,8,10,12,14,-1,-1,-1,-1,-1,-1,-1,-1],"split_conditions":[5E-1,5E-1,2.2899117E1,1.469211E1,5E-1,1.1345013E1,2.6626678E1,1.8309214E1,6.6329956E1,2.0252571E2,-1.20718565E1,2.0791681E2,5.62916E2,2.1729355E1,1.0366166E2],"split_indices":[12,20,2,2,6,2,2,0,0,0,0,0,0,0,0],"split_type":[0,0,0,0,0,0,0,0,0,0,0,0,0,0,0],"sum_hessian":[2.0258E4,1.8447E4,1.811E3,1.7233E4,1.214E3,1.028E3,7.83E2,1.101E4,6.223E3,9.21E2,2.93E2,5.52E2,4.76E2,3.84E2,3.99E2],"tree_param":{"num_deleted":"0","num_feature":"25","num_nodes":"15","size_leaf_vector":"0"}},{"base_weights":[1.3613607E3,1.031447E3,4.8046694E3,7.024216E2,3.5500312E3,6.768802E3,8.1810974E2,3.9961978E2,1.6678473E3,2.6923513E3,1.0291008E4,9.253334E3,8.9702234E2,5.1532166E2,3.1791875E3],"categories":[],"categories_nodes":[],"categories_segments":[],"categories_sizes":[],"default_left":[true,true,true,true,true,true,true,false,false,false,false,false,false,false,false],"id":10,"left_children":[1,3,5,7,9,11,13,-1,-1,-1,-1,-1,-1,-1,-1],"loss_changes":[2.2824534E10,1.5195703E10,1.3751669E10,4.7416054E9,1.2226628E10,1.7161617E10,4.138524E8,0E0,0E0,0E0,0E0,0E0,0E0,0E0,0E0],"parents":[2147483647,0,0,1,1,2,2,3,3,4,4,5,5,6,6],"right_children":[2,4,6,8,10,12,14,-1,-1,-1,-1,-1,-1,-1,-1],"split_conditions":[5E-1,5E-1,5E-1,1.7830591E1,5E-1,5E-1,2.9704042E1,1.5984791E1,6.671389E1,1.0769405E2,4.116403E2,3.7013336E2,3.5880894E1,2.0612865E1,1.27167496E2],"split_indices":[12,11,21,2,20,24,2,0,0,0,0,0,0,0,0],"split_type":[0,0,0,0,0,0,0,0,0,0,0,0,0,0,0],"sum_hessian":[2.0095E4,1.8339E4,1.756E3,1.6221E4,2.118E3,1.176E3,5.8E2,1.2349E4,3.872E3,1.88E3,2.38E2,8.26E2,3.5E2,5.15E2,6.5E1],"tree_param":{"num_deleted":"0","num_feature":"25","num_nodes":"15","size_leaf_vector":"0"}},{"base_weights":[1.516065E3,2.8379033E4,9.4073816E2,1.1470225E4,3.412948E4,3.9034856E3,-5.875665E1,-5.5760254E2,1.6265433E4,1.3007193E5,3.1274182E4,3.8706587E3,6.0075246E4,3.3787506E2,-1.1839637E2],"categories":[],"categories_nodes":[],"categories_segments":[],"categories_sizes":[],"default_left":[true,true,true,true,true,true,true,false,false,false,false,false,false,false,false],"id":11,"left_children":[1,3,5,7,9,11,13,-1,-1,-1,-1,-1,-1,-1,-1],"loss_changes":[3.1241286E11,4.0877457E10,5.861182E10,6.286216E9,8.3040666E10,9.007227E9,3.5014854E8,0E0,0E0,0E0,0E0,0E0,0E0,0E0,0E0],"parents":[2147483647,0,0,1,1,2,2,3,3,4,4,5,5,6,6],"right_children":[2,4,6,8,10,12,14,-1,-1,-1,-1,-1,-1,-1,-1],"split_conditions":[-1.411724E2,-1.5739415E2,-1.0060951E2,5E-1,-1.5706985E2,-1.00614586E2,-9.550017E1,-2.2304102E1,6.506173E2,5.202877E3,1.2509673E3,1.5482634E2,2.4030098E3,1.3515002E1,-4.7358546E0],"split_indices":[1,1,1,18,1,1,1,0,0,0,0,0,0,0,0],"split_type":[0,0,0,0,0,0,0,0,0,0,0,0,0,0,0],"sum_hessian":[2.0215E4,4.23E2,1.9792E4,1.08E2,3.15E2,4.992E3,1.48E4,3.1E1,7.7E1,8E0,3.07E2,4.99E3,2E0,1.934E3,1.2866E4],"tree_param":{"num_deleted":"0","num_feature":"25","num_nodes":"15","size_leaf_vector":"0"}},{"base_weights":[1.3701868E3,1.00845996E3,5.0397954E3,1.8857137E3,2.332402E2,6.165124E3,4.016554E2,8.8539215E2,5.3309575E3,9.851842E2,1.10938E2,6.002352E3,8.754205E4,4.3339172E1,8.623194E3],"categories":[],"categories_nodes":[],"categories_segments":[],"categories_sizes":[],"default_left":[true,true,true,true,true,true,true,false,false,false,false,false,false,false,false],"id":12,"left_children":[1,3,5,7,9,11,13,-1,-1,-1,-1,-1,-1,-1,-1],"loss_changes":[2.6891145E10,1.2543314E10,9.486057E9,2.9816736E10,9.005002E8,1.8926424E10,1.04799885E9,0E0,0E0,0E0,0E0,0E0,0E0,0E0,0E0],"parents":[2147483647,0,0,1,1,2,2,3,3,4,4,5,5,6,6],"right_children":[2,4,6,8,10,12,14,-1,-1,-1,-1,-1,-1,-1,-1],"split_conditions":[5E-1,4.553013E1,6.697552E1,1.1021605E1,1.7479167E0,6.6859314E1,8.3137085E1,3.5415684E1,2.132383E2,3.9407368E1,4.43752E0,2.4009407E2,3.501682E3,1.7335669E0,3.4492776E2],"split_indices":[12,3,3,3,5,3,3,0,0,0,0,0,0,0,0],"split_type":[0,0,0,0,0,0,0,0,0,0,0,0,0,0,0],"sum_hessian":[2.0261E4,1.8444E4,1.817E3,8.652E3,9.792E3,1.462E3,3.55E2,6.706E3,1.946E3,1.369E3,8.423E3,1.46E3,2E0,3.41E2,1.4E1],"tree_param":{"num_deleted":"0","num_feature":"25","num_nodes":"15","size_leaf_vector":"0"}},{"base_weights":[1.1413364E3,1.6701051E3,3.7045682E2,1.6533289E3,7.147642E4,2.7272345E2,1.5532852E3,8.674366E2,2.875483E3,-3.337404E1,4.5267923E2,2.134431E3,-2.1467206E2],"categories":[],"categories_nodes":[],"categories_segments":[],"categories_sizes":[],"default_left":[true,true,true,true,false,true,true,false,false,false,false,false,false],"id":13,"left_children":[1,3,5,7,-1,9,11,-1,-1,-1,-1,-1,-1],"loss_changes":[8.2296054E9,1.3923402E10,9.494039E8,1.1498531E10,0E0,4.18093E8,6.4445235E8,0E0,0E0,0E0,0E0,0E0,0E0],"parents":[2147483647,0,0,1,1,2,2,3,3,5,5,6,6],"right_children":[2,4,6,8,-1,10,12,-1,-1,-1,-1,-1,-1],"split_conditions":[5.6502907E1,5.6496223E1,5E-1,9.143055E0,2.859057E3,6.437523E1,5E-1,3.4697464E1,1.1501932E2,-1.3349615E0,1.8107168E1,8.5377235E1,-8.586883E0],"split_indices":[3,3,11,3,0,3,24,0,0,0,0,0,0],"split_type":[0,0,0,0,0,0,0,0,0,0,0,0,0],"sum_hessian":[2.019E4,1.1975E4,8.215E3,1.1973E4,2E0,7.589E3,6.26E2,7.288E3,4.685E3,2.81E3,4.779E3,4.71E2,1.55E2],"tree_param":{"num_deleted":"0","num_feature":"25","num_nodes":"13","size_leaf_vector":"0"}},{"base_weights":[1.2260283E3,1.8916315E3,5.349533E2,1.01326904E3,4.0891372E3,1.1163827E3,2.2828133E2,8.1151447E2,5.2540625E3,2.0792723E4,3.5084858E3,1.0852227E3,3.8209656E4,4.4108328E2,-9.619979E1],"categories":[],"categories_nodes":[],"categories_segments":[],"categories_sizes":[],"default_left":[true,true,true,true,true,true,true,false,false,false,false,false,false,false,false],"id":14,"left_children":[1,3,5,7,9,11,13,-1,-1,-1,-1,-1,-1,-1,-1],"loss_changes":[9.321976E9,1.992362E10,1.7730294E9,6.307979E9,2.8528611E10,3.9333783E9,4.4968166E8,0E0,0E0,0E0,0E0,0E0,0E0,0E0,0E0],"parents":[2147483647,0,0,1,1,2,2,3,3,4,4,5,5,6,6],"right_children":[2,4,6,8,10,12,14,-1,-1,-1,-1,-1,-1,-1,-1],"split_conditions":[4.928157E1,9.143055E0,2.4214506E0,5E-1,1.5395358E1,2.4207659E0,3.7372808E0,3.246058E1,2.1016249E2,8.3170886E2,1.4033943E2,4.3408905E1,1.5283862E3,1.7643332E1,-3.8479915E0],"split_indices":[3,3,5,20,3,5,5,0,0,0,0,0,0,0,0],"split_type":[0,0,0,0,0,0,0,0,0,0,0,0,0,0,0],"sum_hessian":[2.0267E4,1.0323E4,9.944E3,7.376E3,2.947E3,3.433E3,6.511E3,7.042E3,3.34E2,9.8E1,2.849E3,3.431E3,2E0,3.932E3,2.579E3],"tree_param":{"num_deleted":"0","num_feature":"25","num_nodes":"15","size_leaf_vector":"0"}},{"base_weights":[1.2267489E3,8.463533E2,3.0007905E3,4.733678E2,1.8644553E3,1.6476831E3,5.591249E3,2.2191188E4,4.6819324E2,1.1169287E3,5.187224E3,1.4235864E3,6.196338E3,1.0794767E4,1.8023615E3],"categories":[],"categories_nodes":[],"categories_segments":[],"categories_sizes":[],"default_left":[true,true,true,true,true,true,true,false,false,false,false,false,false,false,false],"id":15,"left_children":[1,3,5,7,9,11,13,-1,-1,-1,-1,-1,-1,-1,-1],"loss_changes":[1.3513372E10,6.262195E9,1.2385878E10,1.3477212E9,1.0978297E10,2.361232E9,2.3895454E10,0E0,0E0,0E0,0E0,0E0,0E0,0E0,0E0],"parents":[2147483647,0,0,1,1,2,2,3,3,4,4,5,5,6,6],"right_children":[2,4,6,8,10,12,14,-1,-1,-1,-1,-1,-1,-1,-1],"split_conditions":[5E-1,2.0390663E1,1.4238853E1,-1.8015541E1,5E-1,5E-1,1.9952534E1,8.8764746E2,1.872773E1,4.4677147E1,2.0748895E2,5.6943455E1,2.4785352E2,4.3179065E2,7.209446E1],"split_indices":[18,2,2,2,23,14,2,0,0,0,0,0,0,0,0],"split_type":[0,0,0,0,0,0,0,0,0,0,0,0,0,0,0],"sum_hessian":[2.0027E4,1.6492E4,3.535E3,1.2071E4,4.421E3,2.323E3,1.212E3,2E0,1.2069E4,3.61E3,8.11E2,2.215E3,1.08E2,5.1E2,7.02E2],"tree_param":{"num_deleted":"0","num_feature":"25","num_nodes":"15","size_leaf_vector":"0"}},{"base_weights":[1.2104833E3,8.2005194E2,5.307502E3,5.4702423E2,2.9084482E3,7.5049663E3,5.18938E2,4.4295035E2,2.2191353E3,2.2078972E3,8.3024E3,7.242559E3,2.2103459E4,-6.997104E2,9.730527E2],"categories":[],"categories_nodes":[],"categories_segments":[],"categories_sizes":[],"default_left":[true,true,true,true,true,true,true,false,false,false,false,false,false,false,false],"id":16,"left_children":[1,3,5,7,9,11,13,-1,-1,-1,-1,-1,-1,-1,-1],"loss_changes":[3.2317645E10,1.0517988E10,1.8494058E10,2.8386662E9,8.0437944E9,4.478284E9,3.0709162E8,0E0,0E0,0E0,0E0,0E0,0E0,0E0,0E0],"parents":[2147483647,0,0,1,1,2,2,3,3,4,4,5,5,6,6],"right_children":[2,4,6,8,10,12,14,-1,-1,-1,-1,-1,-1,-1,-1],"split_conditions":[5E-1,5E-1,5E-1,5E-1,5E-1,3.225E1,-5E-1,1.7718014E1,8.876541E1,8.831589E1,3.32096E2,2.8970236E2,8.8413837E2,-2.7988415E1,3.8922108E1],"split_indices":[12,11,21,20,20,4,4,0,0,0,0,0,0,0,0],"split_type":[0,0,0,0,0,0,0,0,0,0,0,0,0,0,0],"sum_hessian":[2.0205E4,1.8448E4,1.757E3,1.6316E4,2.132E3,1.204E3,5.53E2,1.5361E4,9.55E2,1.888E3,2.44E2,1.184E3,2E1,1.5E2,4.03E2],"tree_param":{"num_deleted":"0","num_feature":"25","num_nodes":"15","size_leaf_vector":"0"}},{"base_weights":[1.0852694E3,6.512875E2,2.4876793E4,3.2309753E3,-2.1245828E2,1.4795832E4,3.0989664E4,3.1423672E3,1.561142E5,-2.2079733E2,5.7147007E3,4.637358E4,8.456491E3,2.2828783E4,4.9861125E4],"categories":[],"categories_nodes":[],"categories_segments":[],"categories_sizes":[],"default_left":[true,true,true,true,true,true,true,false,false,false,false,false,false,false,false],"id":17,"left_children":[1,3,5,7,9,11,13,-1,-1,-1,-1,-1,-1,-1,-1],"loss_changes":[2.0798358E11,4.4085096E10,2.1844296E10,6.6809807E10,7.337261E8,2.7260377E10,3.3500086E10,0E0,0E0,0E0,0E0,0E0,0E0,0E0,0E0],"parents":[2147483647,0,0,1,1,2,2,3,3,4,4,5,5,6,6],"right_children":[2,4,6,8,10,12,14,-1,-1,-1,-1,-1,-1,-1,-1],"split_conditions":[5.9907127E1,-1.00919754E2,-1.5376875E2,-1.0093632E2,3.332982E1,-5E-1,6.57173E1,1.2569469E2,6.244568E3,-8.831893E0,2.2858803E2,1.8549431E3,3.3825964E2,9.131513E2,1.994445E3],"split_indices":[0,1,1,1,2,2,0,0,0,0,0,0,0,0,0],"split_type":[0,0,0,0,0,0,0,0,0,0,0,0,0,0,0],"sum_hessian":[2.0144E4,1.9784E4,3.6E2,4.962E3,1.4822E4,1.37E2,2.23E2,4.96E3,2E0,1.4802E4,2E1,2.2E1,1.15E2,1.57E2,6.6E1],"tree_param":{"num_deleted":"0","num_feature":"25","num_nodes":"15","size_leaf_vector":"0"}},{"base_weights":[9.226993E2,5.993847E2,2.6257385E4,1.3124939E2,2.210454E3,1.2885849E4,3.3872176E4,1.02023056E2,3.0413987E3,1.3115438E3,5.733621E3,1.145835E4,5.4914832E4,1.1769829E5,2.9431549E4],"categories":[],"categories_nodes":[],"categories_segments":[],"categories_sizes":[],"default_left":[true,true,true,true,true,true,true,false,false,false,false,false,false,false,false],"id":18,"left_children":[1,3,5,7,9,11,13,-1,-1,-1,-1,-1,-1,-1,-1],"loss_changes":[1.6566616E11,1.5063249E10,2.5575784E10,1.3160854E9,1.4235144E10,5.0917366E9,5.728066E10,0E0,0E0,0E0,0E0,0E0,0E0,0E0,0E0],"parents":[2147483647,0,0,1,1,2,2,3,3,4,4,5,5,6,6],"right_children":[2,4,6,8,10,12,14,-1,-1,-1,-1,-1,-1,-1,-1],"split_conditions":[6.3560272E1,3.9627415E1,1.4210972E1,3.1803604E1,5E-1,2.645E1,1.4640037E1,4.080922E0,1.21655945E2,5.246175E1,2.2934483E2,4.5833398E2,2.1965933E3,4.7079316E3,1.177262E3],"split_indices":[0,0,2,2,7,4,2,0,0,0,0,0,0,0,0],"split_type":[0,0,0,0,0,0,0,0,0,0,0,0,0,0,0],"sum_hessian":[2.0226E4,1.9972E4,2.54E2,1.5476E4,4.496E3,9.3E1,1.61E2,1.5323E4,1.53E2,3.583E3,9.13E2,9.1E1,2E0,7E0,1.54E2],"tree_param":{"num_deleted":"0","num_feature":"25","num_nodes":"15","size_leaf_vector":"0"}},{"base_weights":[1.0276469E3,1.6695615E3,1.9490561E2,9.016325E2,3.055636E3,-1.4240707E2,2.1476406E3,6.453446E2,3.7222214E3,2.214318E4,2.7715415E3,-1.6341483E2,8.6739874E2,4.276816E3,8.5963824E2],"categories":[],"categories_nodes":[],"categories_segments":[],"categories_sizes":[],"default_left":[true,true,true,true,true,true,true,false,false,false,false,false,false,false,false],"id":19,"left_children":[1,3,5,7,9,11,13,-1,-1,-1,-1,-1,-1,-1,-1],"loss_changes":[1.0860073E10,1.2209424E10,5.8262144E9,5.3356027E9,2.2125322E10,1.6013338E8,3.5697797E9,0E0,0E0,0E0,0E0,0E0,0E0,0E0,0E0],"parents":[2147483647,0,0,1,1,2,2,3,3,4,4,5,5,6,6],"right_children":[2,4,6,8,10,12,14,-1,-1,-1,-1,-1,-1,-1,-1],"split_conditions":[5.406079E1,9.114432E0,5E-1,5E-1,1.401681E1,8.315908E1,2.3556504E0,2.5813784E1,1.4888885E2,8.857272E2,1.1086166E2,-6.536593E0,3.469595E1,1.7107263E2,3.438553E1],"split_indices":[3,3,18,7,3,3,5,0,0,0,0,0,0,0,0],"split_type":[0,0,0,0,0,0,0,0,0,0,0,0,0,0,0],"sum_hessian":[2.0316E4,1.1472E4,8.844E3,7.383E3,4.089E3,7.542E3,1.302E3,6.769E3,6.14E2,5.9E1,4.03E3,7.389E3,1.53E2,4.9E2,8.12E2],"tree_param":{"num_deleted":"0","num_feature":"25","num_nodes":"15","size_leaf_vector":"0"}},{"base_weights":[9.9099054E2,5.6101166E2,2.5723002E4,2.6393805E2,3.1989465E3,8.969227E4,2.4170096E4,2.2696094E2,7.644924E3,4.9367542E1,6.93168E3,1.7513582E4,2.1075283E5,2.687299E4,1.4026293E1],"categories":[],"categories_nodes":[],"categories_segments":[],"categories_sizes":[],"default_left":[true,true,true,true,true,true,true,false,false,false,false,false,false,false,false],"id":20,"left_children":[1,3,5,7,9,11,13,-1,-1,-1,-1,-1,-1,-1,-1],"loss_changes":[2.1460638E11,1.5545428E10,3.2399393E10,4.8650414E9,2.360515E10,6.5491587E10,2.2058795E10,0E0,0E0,0E0,0E0,0E0,0E0,0E0,0E0],"parents":[2147483647,0,0,1,1,2,2,3,3,4,4,5,5,6,6],"right_children":[2,4,6,8,10,12,14,-1,-1,-1,-1,-1,-1,-1,-1],"split_conditions":[6.161667E1,5E-1,6.1999702E1,7.0426054E0,3.949485E1,6.194785E1,6.8275955E1,9.078437E0,3.0579694E2,1.9747016E0,2.772672E2,7.005433E2,8.430113E3,1.0749196E3,5.610517E-1],"split_indices":[0,7,0,5,0,0,3,0,0,0,0,0,0,0,0],"split_type":[0,0,0,0,0,0,0,0,0,0,0,0,0,0,0],"sum_hessian":[2.0181E4,1.9837E4,3.44E2,1.783E4,2.007E3,7E0,3.37E2,1.7742E4,8.8E1,1.089E3,9.18E2,5E0,2E0,3.03E2,3.4E1],"tree_param":{"num_deleted":"0","num_feature":"25","num_nodes":"15","size_leaf_vector":"0"}},{"base_weights":[8.9156635E2,5.3200903E2,4.6887495E3,3.0853162E2,2.2621277E3,6.531278E3,6.773574E2,7.18415E2,-1.2393667E2,3.730324E3,1.8493542E2,9.756462E3,2.1445952E3,-1.837463E2,2.3505103E3],"categories":[],"categories_nodes":[],"categories_segments":[],"categories_sizes":[],"default_left":[true,true,true,true,true,true,true,false,false,false,false,false,false,false,false],"id":21,"left_children":[1,3,5,7,9,11,13,-1,-1,-1,-1,-1,-1,-1,-1],"loss_changes":[2.7224572E10,7.0431974E9,1.2744802E10,2.8601664E9,6.354599E9,1.6702808E10,7.839377E8,0E0,0E0,0E0,0E0,0E0,0E0,0E0,0E0],"parents":[2147483647,0,0,1,1,2,2,3,3,4,4,5,5,6,6],"right_children":[2,4,6,8,10,12,14,-1,-1,-1,-1,-1,-1,-1,-1],"split_conditions":[5E-1,5E-1,5E-1,5.2047844E1,4.668165E1,2.7329626E0,3.1196804E0,2.8736599E1,-4.9574666E0,1.4921295E2,7.3974166E0,3.9025845E2,8.5783806E1,-7.349852E0,9.402041E1],"split_indices":[12,11,21,3,3,5,5,0,0,0,0,0,0,0,0],"split_type":[0,0,0,0,0,0,0,0,0,0,0,0,0,0,0],"sum_hessian":[1.9941E4,1.8217E4,1.724E3,1.6134E4,2.083E3,1.181E3,5.43E2,8.283E3,7.851E3,1.22E3,8.63E2,6.8E2,5.01E2,3.59E2,1.84E2],"tree_param":{"num_deleted":"0","num_feature":"25","num_nodes":"15","size_leaf_vector":"0"}},{"base_weights":[8.770686E2,5.338203E2,1.9924557E4,2.8804807E3,-2.8388437E2,1.20780205E4,2.6694924E4,3.9309834E3,5.3654944E2,1.6628897E2,-3.7261093E2,1.0507653E4,7.610622E4,3.2986145E4,3.624404E3],"categories":[],"categories_nodes":[],"categories_segments":[],"categories_sizes":[],"default_left":[true,true,true,true,true,true,true,false,false,false,false,false,false,false,false],"id":22,"left_children":[1,3,5,7,9,11,13,-1,-1,-1,-1,-1,-1,-1,-1],"loss_changes":[1.3180293E11,3.800375E10,1.8681283E10,1.2599923E10,5.867204E8,1.6091642E10,2.7598856E10,0E0,0E0,0E0,0E0,0E0,0E0,0E0,0E0],"parents":[2147483647,0,0,1,1,2,2,3,3,4,4,5,5,6,6],"right_children":[2,4,6,8,10,12,14,-1,-1,-1,-1,-1,-1,-1,-1],"split_conditions":[6.0299255E1,-1.0024373E2,5E-1,4.5205853E1,3.0802788E1,-1.4220154E2,6.60645E1,1.5723933E2,2.1461977E1,6.651559E0,-1.4904437E1,4.2030612E2,3.0442488E3,1.3194458E3,1.4497617E2],"split_indices":[0,1,12,3,0,1,0,0,0,0,0,0,0,0,0],"split_type":[0,0,0,0,0,0,0,0,0,0,0,0,0,0,0],"sum_hessian":[2.016E4,1.9804E4,3.56E2,5.117E3,1.4687E4,1.66E2,1.9E2,3.533E3,1.584E3,2.418E3,1.2269E4,1.63E2,3E0,1.49E2,4.1E1],"tree_param":{"num_deleted":"0","num_feature":"25","num_nodes":"15","size_leaf_vector":"0"}},{"base_weights":[8.7463983E2,1.7682191E4,5.0471405E2,1.6789086E4,1.1328555E5,2.7601785E3,-2.3747029E2,-9.485137E2,2.018297E4,3.8865503E3,7.4456396E2,7.0016864E2,-2.8044632E2],"categories":[],"categories_nodes":[],"categories_segments":[],"categories_sizes":[],"default_left":[true,true,true,true,false,true,true,false,false,false,false,false,false],"id":23,"left_children":[1,3,5,7,-1,9,11,-1,-1,-1,-1,-1,-1],"loss_changes":[1.2497035E11,3.532878E10,3.292565E10,2.5893552E10,0E0,1.1053703E10,5.965431E8,0E0,0E0,0E0,0E0,0E0,0E0],"parents":[2147483647,0,0,1,1,2,2,3,3,5,5,6,6],"right_children":[2,4,6,8,-1,10,12,-1,-1,-1,-1,-1,-1],"split_conditions":[-1.2390875E2,-1.2392917E2,-1.0081708E2,5E-1,4.531422E3,4.239792E1,-9.843375E1,-3.7940544E1,8.073188E2,1.55462E2,2.9782558E1,2.8006744E1,-1.1217853E1],"split_indices":[1,1,1,18,0,3,1,0,0,0,0,0,0],"split_type":[0,0,0,0,0,0,0,0,0,0,0,0,0],"sum_hessian":[2.01E4,4.32E2,1.9668E4,4.29E2,3E0,4.869E3,1.4799E4,6.9E1,3.6E2,3.123E3,1.746E3,6.48E2,1.4151E4],"tree_param":{"num_deleted":"0","num_feature":"25","num_nodes":"13","size_leaf_vector":"0"}},{"base_weights":[8.05494E2,5.160095E2,1.8506857E4,2.8477554E3,-2.6661923E2,1.6212122E4,3.8547027E4,2.7670222E3,1.4344405E5,5.17587E2,-3.0305896E2,2.032278E4,1.9946609E3,9.18611E4,1.1777435E4],"categories":[],"categories_nodes":[],"categories_segments":[],"categories_sizes":[],"default_left":[true,true,true,true,true,true,true,false,false,false,false,false,false,false,false],"id":24,"left_children":[1,3,5,7,9,11,13,-1,-1,-1,-1,-1,-1,-1,-1],"loss_changes":[1.0377293E11,3.636683E10,1.4449517E10,5.650287E10,4.2651648E8,1.7139163E10,4.596619E10,0E0,0E0,0E0,0E0,0E0,0E0,0E0,0E0],"parents":[2147483647,0,0,1,1,2,2,3,3,4,4,5,5,6,6],"right_children":[2,4,6,8,10,12,14,-1,-1,-1,-1,-1,-1,-1,-1],"split_conditions":[6.19998E1,-1.0093272E2,-1.4225491E2,-1.0094354E2,2.736985E1,6.600835E1,-1.419679E2,1.10680885E2,5.7377617E3,2.0703478E1,-1.2122358E1,8.1291113E2,7.978643E1,3.674444E3,4.7109738E2],"split_indices":[0,1,1,1,0,0,1,0,0,0,0,0,0,0,0],"split_type":[0,0,0,0,0,0,0,0,0,0,0,0,0,0,0],"sum_hessian":[2.0252E4,1.9927E4,3.25E2,5.007E3,1.492E4,2.93E2,3.2E1,5.005E3,2E0,6.62E2,1.4258E4,2.27E2,6.6E1,1E1,2.2E1],"tree_param":{"num_deleted":"0","num_feature":"25","num_nodes":"15","size_leaf_vector":"0"}},{"base_weights":[7.4449243E2,4.4645575E2,2.148304E3,1.2551129E2,1.2243958E3,1.3030625E3,3.6338535E3,3.186585E1,1.9412421E3,9.788611E2,4.1321177E3,2.11636E3,7.158183E2,1.6894963E4,2.1515027E3],"categories":[],"categories_nodes":[],"categories_segments":[],"categories_sizes":[],"default_left":[true,true,true,true,true,true,true,false,false,false,false,false,false,false,false],"id":25,"left_children":[1,3,5,7,9,11,13,-1,-1,-1,-1,-1,-1,-1,-1],"loss_changes":[8.454307E9,4.1621724E9,4.4394977E9,2.0068438E9,3.4726339E9,1.0765847E9,2.5186746E10,0E0,0E0,0E0,0E0,0E0,0E0,0E0,0E0],"parents":[2147483647,0,0,1,1,2,2,3,3,4,4,5,5,6,6],"right_children":[2,4,6,8,10,12,14,-1,-1,-1,-1,-1,-1,-1,-1],"split_conditions":[5E-1,1.9096283E1,1.4228962E1,5E-1,5E-1,-9.9603176E-1,1.5497303E1,1.274634E0,7.764968E1,3.915444E1,1.652847E2,8.46544E1,2.863273E1,6.757985E2,8.6060104E1],"split_indices":[18,2,2,11,20,2,2,0,0,0,0,0,0,0,0],"split_type":[0,0,0,0,0,0,0,0,0,0,0,0,0,0,0],"sum_hessian":[2.0208E4,1.667E4,3.538E3,1.1802E4,4.868E3,2.256E3,1.282E3,1.1224E4,5.78E2,4.49E3,3.78E2,9.45E2,1.311E3,1.28E2,1.154E3],"tree_param":{"num_deleted":"0","num_feature":"25","num_nodes":"15","size_leaf_vector":"0"}},{"base_weights":[7.342903E2,4.0003476E2,2.2186297E4,-5.800271E1,2.1957678E3,1.8262297E4,4.1785113E4,2.2137093E2,-3.0065543E2,4.2128037E3,2.5826767E2,1.02559945E5,1.7263688E4,8.2238875E4,1.3280729E4],"categories":[],"categories_nodes":[],"categories_segments":[],"categories_sizes":[],"default_left":[true,true,true,true,true,true,true,false,false,false,false,false,false,false,false],"id":26,"left_children":[1,3,5,7,9,11,13,-1,-1,-1,-1,-1,-1,-1,-1],"loss_changes":[1.443469E11,1.630549E10,2.3098802E10,1.07087046E9,1.5743871E10,2.0273086E10,5.770765E10,0E0,0E0,0E0,0E0,0E0,0E0,0E0,0E0],"parents":[2147483647,0,0,1,1,2,2,3,3,4,4,5,5,6,6],"right_children":[2,4,6,8,10,12,14,-1,-1,-1,-1,-1,-1,-1,-1],"split_conditions":[6.238065E1,4.0484245E1,6.67274E1,4.29702E1,4.5532005E1,6.2407997E1,6.725275E1,8.854836E0,-1.20262165E1,1.6851215E2,1.0330707E1,4.102398E3,6.905475E2,3.289555E3,5.312291E2],"split_indices":[0,0,0,3,3,0,0,0,0,0,0,0,0,0,0],"split_type":[0,0,0,0,0,0,0,0,0,0,0,0,0,0,0],"sum_hessian":[2.0131E4,1.9823E4,3.08E2,1.5795E4,4.028E3,2.58E2,5E1,7.342E3,8.453E3,1.973E3,2.055E3,2E0,2.56E2,2E1,3E1],"tree_param":{"num_deleted":"0","num_feature":"25","num_nodes":"15","size_leaf_vector":"0"}},{"base_weights":[7.168293E2,3.8156268E2,2.0187117E4,-1.1454745E1,1.8635051E3,2.2508785E4,5.158773E3,-5.3415222E1,9.111539E3,8.175026E2,6.037356E3,1.8775025E4,3.727011E4,2.290111E4,-5.6007383E3],"categories":[],"categories_nodes":[],"categories_segments":[],"categories_sizes":[],"default_left":[true,true,true,true,true,true,true,false,false,false,false,false,false,false,false],"id":27,"left_children":[1,3,5,7,9,11,13,-1,-1,-1,-1,-1,-1,-1,-1],"loss_changes":[1.3182665E11,1.1564068E10,1.1828134E10,6.008103E9,1.8165844E10,1.570644E10,9.05491E9,0E0,0E0,0E0,0E0,0E0,0E0,0E0,0E0],"parents":[2147483647,0,0,1,1,2,2,3,3,4,4,5,5,6,6],"right_children":[2,4,6,8,10,12,14,-1,-1,-1,-1,-1,-1,-1,-1],"split_conditions":[6.19998E1,4.012294E1,6.693115E1,7.016082E0,5E-1,6.57398E1,1.7008748E0,-2.1366088E0,3.6446155E2,3.2700104E1,2.4149423E2,7.51001E2,1.4908043E3,9.160444E2,-2.2402953E2],"split_indices":[0,0,0,5,7,0,5,0,0,0,0,0,0,0,0],"split_type":[0,0,0,0,0,0,0,0,0,0,0,0,0,0,0],"sum_hessian":[2.0195E4,1.9854E4,3.41E2,1.5693E4,4.161E3,2.95E2,4.6E1,1.5622E4,7.1E1,3.328E3,8.33E2,2.37E2,5.8E1,1.7E1,2.9E1],"tree_param":{"num_deleted":"0","num_feature":"25","num_nodes":"15","size_leaf_vector":"0"}},{"base_weights":[7.808556E2,1.5002308E4,4.6002942E2,1.4149535E4,1.0958048E5,2.5592632E3,-2.6376913E2,7.518364E3,2.168378E4,-3.7078214E2,3.6943562E3,-2.224487E2,-9.657511E2],"categories":[],"categories_nodes":[],"categories_segments":[],"categories_sizes":[],"default_left":[true,true,true,true,false,true,true,false,false,false,false,false,false],"id":28,"left_children":[1,3,5,7,-1,9,11,-1,-1,-1,-1,-1,-1],"loss_changes":[9.220843E10,3.4631E10,3.0033265E10,2.1985788E10,0E0,1.6856232E10,4.2617325E8,0E0,0E0,0E0,0E0,0E0,0E0],"parents":[2147483647,0,0,1,1,2,2,3,3,5,5,6,6],"right_children":[2,4,6,8,-1,10,12,-1,-1,-1,-1,-1,-1],"split_conditions":[-1.2390875E2,-1.23920555E2,-1.0011363E2,5E-1,4.3832188E3,-1.1892945E2,5E-1,3.0073456E2,8.6735114E2,-1.4831285E1,1.4777425E2,-8.897948E0,-3.8630043E1],"split_indices":[1,1,1,12,0,1,12,0,0,0,0,0,0],"split_type":[0,0,0,0,0,0,0,0,0,0,0,0,0],"sum_hessian":[2.021E4,4.45E2,1.9765E4,4.42E2,3E0,5.067E3,1.4698E4,2.36E2,2.06E2,1.415E3,3.652E3,1.3882E4,8.16E2],"tree_param":{"num_deleted":"0","num_feature":"25","num_nodes":"13","size_leaf_vector":"0"}},{"base_weights":[6.6268024E2,4.6984238E2,2.4611477E3,1.2915077E2,9.80177E2,3.4325305E3,2.5597348E2,2.7385504E2,-1.926382E2,7.608911E4,9.507616E2,2.8600146E3,6.9973765E3,-2.4884982E2,5.963971E3],"categories":[],"categories_nodes":[],"categories_segments":[],"categories_sizes":[],"default_left":[true,true,true,true,true,true,true,false,false,false,false,false,false,false,false],"id":29,"left_children":[1,3,5,7,9,11,13,-1,-1,-1,-1,-1,-1,-1,-1],"loss_changes":[7.0257265E9,3.181628E9,4.2016768E9,5.1108102E8,1.6123417E10,2.7622984E9,1.7326627E9,0E0,0E0,0E0,0E0,0E0,0E0,0E0,0E0],"parents":[2147483647,0,0,1,1,2,2,3,3,4,4,5,5,6,6],"right_children":[2,4,6,8,10,12,14,-1,-1,-1,-1,-1,-1,-1,-1],"split_conditions":[5E-1,1.2909716E1,2.6424927E1,2.4083228E0,1.2913408E1,2.458738E1,4.5608497E0,1.0954202E1,-7.705528E0,3.0435642E3,3.8030464E1,1.1440058E2,2.7989505E2,-9.953993E0,2.3855884E2],"split_indices":[7,2,2,5,2,2,5,0,0,0,0,0,0,0,0],"split_type":[0,0,0,0,0,0,0,0,0,0,0,0,0,0,0],"sum_hessian":[2.026E4,1.8299E4,1.961E3,1.0974E4,7.325E3,1.361E3,6E2,7.57E3,3.404E3,2E0,7.323E3,1.174E3,1.87E2,5.52E2,4.8E1],"tree_param":{"num_deleted":"0","num_feature":"25","num_nodes":"15","size_leaf_vector":"0"}},{"base_weights":[6.28102E2,1.3240542E4,3.5468005E2,1.2380352E4,1.0616275E5,2.3110151E3,-2.9127142E2,1.8190697E4,3.3946702E3,2.2302363E3,8.427448E4,6.786073E2,-3.3768097E2],"categories":[],"categories_nodes":[],"categories_segments":[],"categories_sizes":[],"default_left":[true,true,true,true,false,true,true,false,false,false,false,false,false],"id":30,"left_children":[1,3,5,7,-1,9,11,-1,-1,-1,-1,-1,-1],"loss_changes":[7.0348685E10,3.3472061E10,2.5235173E10,2.238987E10,0E0,3.2657779E10,6.7594906E8,0E0,0E0,0E0,0E0,0E0,0E0],"parents":[2147483647,0,0,1,1,2,2,3,3,5,5,6,6],"right_children":[2,4,6,8,-1,10,12,-1,-1,-1,-1,-1,-1],"split_conditions":[-1.2390875E2,-1.23920555E2,-1.0091579E2,5.4450455E1,4.24651E3,-1.0093367E2,-9.843375E1,7.2762787E2,1.357868E2,8.920945E1,3.370979E3,2.714429E1,-1.3507238E1],"split_indices":[1,1,1,3,0,1,1,0,0,0,0,0,0],"split_type":[0,0,0,0,0,0,0,0,0,0,0,0,0],"sum_hessian":[2.04E4,4.32E2,1.9968E4,4.29E2,3E0,4.956E3,1.5012E4,2.6E2,1.69E2,4.952E3,4E0,6.85E2,1.4327E4],"tree_param":{"num_deleted":"0","num_feature":"25","num_nodes":"13","size_leaf_vector":"0"}},{"base_weights":[5.616573E2,3.6669208E2,2.545397E3,2.5181226E2,2.0077101E3,1.9667894E2,8.767145E3,2.1714963E2,7.35636E3,1.675073E3,5.20776E4,-5.70816E2,2.150875E3,1.4644738E4,1.8459827E3],"categories":[],"categories_nodes":[],"categories_segments":[],"categories_sizes":[],"default_left":[true,true,true,true,true,true,true,false,false,false,false,false,false,false,false],"id":31,"left_children":[1,3,5,7,9,11,13,-1,-1,-1,-1,-1,-1,-1,-1],"loss_changes":[7.7571666E9,3.4428534E9,2.6227003E10,4.2025364E9,1.9825678E10,1.9566243E9,1.9985457E10,0E0,0E0,0E0,0E0,0E0,0E0,0E0,0E0],"parents":[2147483647,0,0,1,1,2,2,3,3,4,4,5,5,6,6],"right_children":[2,4,6,8,10,12,14,-1,-1,-1,-1,-1,-1,-1,-1],"split_conditions":[5E-1,5E-1,5E-1,7.0084887E0,2.8950645E1,2.6614567E1,1.774636E1,8.685985E0,2.942544E2,6.700292E1,2.083104E3,-2.2832638E1,8.6034996E1,5.857895E2,7.38393E1],"split_indices":[12,20,18,5,2,2,2,0,0,0,0,0,0,0,0],"split_type":[0,0,0,0,0,0,0,0,0,0,0,0,0,0,0],"sum_hessian":[2.0058E4,1.8264E4,1.794E3,1.707E4,1.194E3,1.303E3,4.91E2,1.6988E4,8.2E1,1.187E3,7E0,9.36E2,3.67E2,2.65E2,2.26E2],"tree_param":{"num_deleted":"0","num_feature":"25","num_nodes":"15","size_leaf_vector":"0"}},{"base_weights":[5.051941E2,1.1026266E3,-3.8798973E1,2.3557002E2,3.6699192E3,-2.1556667E2,8.882321E2,1.1793722E2,2.773907E3,4.316111E3,7.9661725E2,-1.131799E3,-1.9897478E2,1.3739287E3,-1.070598E3],"categories":[],"categories_nodes":[],"categories_segments":[],"categories_sizes":[],"default_left":[true,true,true,true,true,true,true,false,false,false,false,false,false,false,false],"id":32,"left_children":[1,3,5,7,9,11,13,-1,-1,-1,-1,-1,-1,-1,-1],"loss_changes":[6.485024E9,2.1168083E10,1.7117536E9,2.1226629E9,4.454732E9,1.3317158E8,1.5928123E9,0E0,0E0,0E0,0E0,0E0,0E0,0E0,0E0],"parents":[2147483647,0,0,1,1,2,2,3,3,4,4,5,5,6,6],"right_children":[2,4,6,8,10,12,14,-1,-1,-1,-1,-1,-1,-1,-1],"split_conditions":[4.5528854E1,1.1531509E1,5E-1,5E-1,5E-1,4.69301E1,1.9983625E1,4.717489E0,1.10956276E2,1.7264442E2,3.1864689E1,-4.5271957E1,-7.958991E0,5.4957146E1,-4.282392E1],"split_indices":[3,2,18,20,24,3,2,0,0,0,0,0,0,0,0],"split_type":[0,0,0,0,0,0,0,0,0,0,0,0,0,0,0],"sum_hessian":[1.9953E4,9.509E3,1.0444E4,7.109E3,2.4E3,8.772E3,1.672E3,6.795E3,3.14E2,1.959E3,4.41E2,1.55E2,8.617E3,1.34E3,3.32E2],"tree_param":{"num_deleted":"0","num_feature":"25","num_nodes":"15","size_leaf_vector":"0"}},{"base_weights":[4.6421155E2,2.5892474E2,2.3073416E4,1.8393506E2,9.400493E3,2.0686332E4,1.6725606E5,-9.563511E1,1.2814586E3,1.4823822E4,-3.6250022E3,1.306357E4,3.629668E4],"categories":[],"categories_nodes":[],"categories_segments":[],"categories_sizes":[],"default_left":[true,true,true,true,true,true,false,false,false,false,false,false,false],"id":33,"left_children":[1,3,5,7,9,11,-1,-1,-1,-1,-1,-1,-1],"loss_changes":[9.432079E10,1.3805541E10,5.9969446E10,6.130008E9,1.1621182E10,2.1114479E10,0E0,0E0,0E0,0E0,0E0,0E0,0E0],"parents":[2147483647,0,0,1,1,2,2,3,3,4,4,5,5],"right_children":[2,4,6,8,10,12,-1,-1,-1,-1,-1,-1,-1],"split_conditions":[6.46532E1,5.9873917E1,3.175E1,4.049167E1,1.6490717E1,1.7333973E1,6.690242E3,-3.8254042E0,5.1258343E1,5.929529E2,-1.4500009E2,5.225428E2,1.4518672E3],"split_indices":[0,0,4,0,2,2,0,0,0,0,0,0,0],"split_type":[0,0,0,0,0,0,0,0,0,0,0,0,0],"sum_hessian":[2.0322E4,2.014E4,1.82E2,1.9977E4,1.63E2,1.8E2,2E0,1.5922E4,4.055E3,1.15E2,4.8E1,1.22E2,5.8E1],"tree_param":{"num_deleted":"0","num_feature":"25","num_nodes":"13","size_leaf_vector":"0"}},{"base_weights":[5.317292E2,2.7519705E2,1.5127449E4,-4.3147682E1,1.3657545E3,6.952784E4,1.349224E4,-1.586274E2,8.758087E2,3.0798555E3,-3.7301077E2,1.3698653E4,2.022018E5,9.357871E3,3.000693E4],"categories":[],"categories_nodes":[],"categories_segments":[],"categories_sizes":[],"default_left":[true,true,true,true,true,true,true,false,false,false,false,false,false,false,false],"id":34,"left_children":[1,3,5,7,9,11,13,-1,-1,-1,-1,-1,-1,-1,-1],"loss_changes":[7.475776E10,6.8125814E9,2.987302E10,1.6120787E9,1.321574E10,7.063814E10,2.2690902E10,0E0,0E0,0E0,0E0,0E0,0E0,0E0,0E0],"parents":[2147483647,0,0,1,1,2,2,3,3,4,4,5,5,6,6],"right_children":[2,4,6,8,10,12,14,-1,-1,-1,-1,-1,-1,-1,-1],"split_conditions":[6.1644238E1,3.9606167E1,6.19828E1,5E-1,4.51202E1,6.194785E1,6.257054E1,-6.3450956E0,3.503235E1,1.23194214E2,-1.492043E1,5.479461E2,8.088072E3,3.7431485E2,1.2002772E3],"split_indices":[0,0,0,6,3,0,3,0,0,0,0,0,0,0,0],"split_type":[0,0,0,0,0,0,0,0,0,0,0,0,0,0,0],"sum_hessian":[1.9966E4,1.9622E4,3.44E2,1.5189E4,4.433E3,9E0,3.35E2,1.3494E4,1.695E3,2.232E3,2.201E3,7E0,2E0,2.69E2,6.6E1],"tree_param":{"num_deleted":"0","num_feature":"25","num_nodes":"15","size_leaf_vector":"0"}},{"base_weights":[5.453644E2,6.819705E1,1.1153037E3,-3.794381E1,1.7950498E3,1.5396148E5,1.0677578E3,-1.3225185E2,1.5948969E3,6.20864E2,1.50307705E4,3.6670122E3,3.7004614E2],"categories":[],"categories_nodes":[],"categories_segments":[],"categories_sizes":[],"default_left":[true,true,true,true,true,false,true,false,false,false,false,false,false],"id":35,"left_children":[1,3,5,7,9,-1,11,-1,-1,-1,-1,-1,-1],"loss_changes":[5.4945024E9,2.0158525E9,6.6767192E10,1.5958026E9,9.889516E9,0E0,1.6692121E10,0E0,0E0,0E0,0E0,0E0,0E0],"parents":[2147483647,0,0,1,1,2,2,3,3,4,4,6,6],"right_children":[2,4,6,8,10,-1,12,-1,-1,-1,-1,-1,-1],"split_conditions":[1.1947191E1,5E-1,1.1948492E1,5E-1,5E-1,6.1584595E3,4.1568043E1,-5.290074E0,6.379587E1,2.483456E1,6.0123083E2,1.4668048E2,1.4801846E1],"split_indices":[2,11,2,7,20,0,3,0,0,0,0,0,0],"split_type":[0,0,0,0,0,0,0,0,0,0,0,0,0],"sum_hessian":[2.0203E4,1.0997E4,9.206E3,1.0361E4,6.36E2,2E0,9.204E3,9.796E3,5.65E2,5.85E2,5.1E1,1.947E3,7.257E3],"tree_param":{"num_deleted":"0","num_feature":"25","num_nodes":"13","size_leaf_vector":"0"}},{"base_weights":[5.2951514E2,2.7674826E2,1.5679969E4,-5.7549225E1,1.5755438E3,2.0880333E5,1.3961251E4,-9.940455E1,7.5913354E3,6.9275256E2,5.0528926E3,1.2470612E4,9.434016E4],"categories":[],"categories_nodes":[],"categories_segments":[],"categories_sizes":[],"default_left":[true,true,true,true,true,false,true,false,false,false,false,false,false],"id":36,"left_children":[1,3,5,7,9,-1,11,-1,-1,-1,-1,-1,-1],"loss_changes":[7.72106E10,8.61119E9,1.0732089E11,5.0505897E9,1.2459836E10,0E0,3.83939E10,0E0,0E0,0E0,0E0,0E0,0E0],"parents":[2147483647,0,0,1,1,2,2,3,3,4,4,6,6],"right_children":[2,4,6,8,10,-1,12,-1,-1,-1,-1,-1,-1],"split_conditions":[6.19729E1,4.0484245E1,6.207E1,6.8534327E0,5E-1,8.352133E3,3.175E1,-3.9761817E0,3.036534E2,2.7710102E1,2.0211569E2,4.988245E2,3.7736062E3],"split_indices":[0,0,0,5,7,0,4,0,0,0,0,0,0],"split_type":[0,0,0,0,0,0,0,0,0,0,0,0,0],"sum_hessian":[2.0162E4,1.9832E4,3.3E2,1.5773E4,4.059E3,2E0,3.28E2,1.5688E4,8.5E1,3.238E3,8.21E2,3.23E2,5E0],"tree_param":{"num_deleted":"0","num_feature":"25","num_nodes":"13","size_leaf_vector":"0"}},{"base_weights":[4.245515E2,2.3809277E2,2.4060703E3,2.0103865E2,2.5891384E3,3.1519001E3,-5.205876E2,9.880442E1,9.8928125E2,4.1007817E3,-7.4722986E2,4.9169116E3,5.991988E2],"categories":[],"categories_nodes":[],"categories_segments":[],"categories_sizes":[],"default_left":[true,true,true,true,true,true,false,false,false,false,false,false,false],"id":37,"left_children":[1,3,5,7,9,11,-1,-1,-1,-1,-1,-1,-1],"loss_changes":[7.448369E9,1.6049126E9,3.7860516E9,1.4619648E9,1.4443192E9,6.223496E9,0E0,0E0,0E0,0E0,0E0,0E0,0E0],"parents":[2147483647,0,0,1,1,2,2,3,3,4,4,5,5],"right_children":[2,4,6,8,10,12,-1,-1,-1,-1,-1,-1,-1],"split_conditions":[5E-1,5E-1,5E-1,5E-1,5E-1,5E-1,-2.0823503E1,3.9521768E0,3.957125E1,1.6403127E2,-2.9889194E1,1.9667647E2,2.396795E1],"split_indices":[12,19,24,11,6,21,0,0,0,0,0,0,0],"split_type":[0,0,0,0,0,0,0,0,0,0,0,0,0],"sum_hessian":[2.016E4,1.8427E4,1.733E3,1.8142E4,2.85E2,1.381E3,3.52E2,1.606E4,2.082E3,1.96E2,8.9E1,8.16E2,5.65E2],"tree_param":{"num_deleted":"0","num_feature":"25","num_nodes":"13","size_leaf_vector":"0"}},{"base_weights":[5.520306E2,2.4955505E2,1.8487896E4,2.4691255E3,-2.3514226E2,1.681202E4,8.661454E4,2.320566E3,3.563982E4,9.0862695E2,-3.143377E2,5.000923E4,1.4175495E4,9.395216E3,2.1893175E5],"categories":[],"categories_nodes":[],"categories_segments":[],"categories_sizes":[],"default_left":[true,true,true,true,true,true,true,false,false,false,false,false,false,false,false],"id":38,"left_children":[1,3,5,7,9,11,13,-1,-1,-1,-1,-1,-1,-1,-1],"loss_changes":[1.098656E11,2.1427446E10,3.7097333E10,1.7520718E10,1.481055E9,2.8175655E10,7.851641E10,0E0,0E0,0E0,0E0,0E0,0E0,0E0,0E0],"parents":[2147483647,0,0,1,1,2,2,3,3,4,4,5,5,6,6],"right_children":[2,4,6,8,10,12,14,-1,-1,-1,-1,-1,-1,-1,-1],"split_conditions":[6.1614525E1,-1.0931415E2,2.4849998E1,-1.0945266E2,-1.02859085E2,6.2531647E1,-1.5322055E2,9.282263E1,1.4255928E3,3.6345078E1,-1.2573508E1,2.0003691E3,5.670198E2,3.7580862E2,8.75727E3],"split_indices":[0,1,4,1,1,0,1,0,0,0,0,0,0,0,0],"split_type":[0,0,0,0,0,0,0,0,0,0,0,0,0,0,0],"sum_hessian":[2.0251E4,1.9916E4,3.35E2,3.569E3,1.6347E4,3.28E2,7E0,3.554E3,1.5E1,1.058E3,1.5289E4,2.3E1,3.05E2,5E0,2E0],"tree_param":{"num_deleted":"0","num_feature":"25","num_nodes":"15","size_leaf_vector":"0"}},{"base_weights":[3.725279E2,1.9204929E2,1.18468125E4,2.5844468E3,-2.3652576E2,3.4088953E3,1.9752807E4,-4.421549E2,4.515874E3,4.9383087E2,-3.070061E2,6.816498E4,8.2393274E2,-3.0382717E3,2.9101686E4],"categories":[],"categories_nodes":[],"categories_segments":[],"categories_sizes":[],"default_left":[true,true,true,true,true,true,true,false,false,false,false,false,false,false,false],"id":39,"left_children":[1,3,5,7,9,11,13,-1,-1,-1,-1,-1,-1,-1,-1],"loss_changes":[4.1972072E10,2.0461701E10,2.087972E10,1.7724922E10,8.713503E8,2.5538894E10,3.456286E10,0E0,0E0,0E0,0E0,0E0,0E0,0E0,0E0],"parents":[2147483647,0,0,1,1,2,2,3,3,4,4,5,5,6,6],"right_children":[2,4,6,8,10,12,14,-1,-1,-1,-1,-1,-1,-1,-1],"split_conditions":[6.238065E1,-1.1268695E2,5E-1,-1.2018186E2,-1.0359E2,6.2550835E1,-1.5502115E2,-1.7686195E1,1.8063496E2,1.9753235E1,-1.2280244E1,2.726599E3,3.295731E1,-1.2153087E2,1.1640674E3],"split_indices":[0,1,12,1,1,0,1,0,0,0,0,0,0,0,0],"split_type":[0,0,0,0,0,0,0,0,0,0,0,0,0,0,0],"sum_hessian":[2.0268E4,1.9955E4,3.13E2,3.031E3,1.6924E4,1.52E2,1.61E2,1.181E3,1.85E3,1.489E3,1.5435E4,5E0,1.47E2,4.7E1,1.14E2],"tree_param":{"num_deleted":"0","num_feature":"25","num_nodes":"15","size_leaf_vector":"0"}},{"base_weights":[3.4968982E2,1.3807053E2,2.117376E4,-1.5402733E2,1.2445782E3,6.264402E3,3.1121777E4,-1.8014879E2,2.3111077E3,7.5440796E2,7.401301E3,3.372734E4,1.5930211E3,7.526442E4,2.3275086E4],"categories":[],"categories_nodes":[],"categories_segments":[],"categories_sizes":[],"default_left":[true,true,true,true,true,true,true,false,false,false,false,false,false,false,false],"id":40,"left_children":[1,3,5,7,9,11,13,-1,-1,-1,-1,-1,-1,-1,-1],"loss_changes":[8.84232E10,6.420656E9,2.977203E10,1.01241056E9,1.2515807E10,1.0455368E10,4.0360223E10,0E0,0E0,0E0,0E0,0E0,0E0,0E0,0E0],"parents":[2147483647,0,0,1,1,2,2,3,3,4,4,5,5,6,6],"right_children":[2,4,6,8,10,12,14,-1,-1,-1,-1,-1,-1,-1,-1],"split_conditions":[6.433322E1,4.0484245E1,1.4424826E1,3.1801136E1,2.4738857E1,6.4794235E1,1.55043335E1,-7.205951E0,9.2444305E1,3.0176317E1,2.9605203E2,1.3490935E3,6.3720844E1,3.010577E3,9.310034E2],"split_indices":[0,0,2,2,2,0,2,0,0,0,0,0,0,0,0],"split_type":[0,0,0,0,0,0,0,0,0,0,0,0,0,0,0],"sum_hessian":[2.0065E4,1.9864E4,2.01E2,1.5716E4,4.148E3,8.1E1,1.2E2,1.5552E4,1.64E2,3.843E3,3.05E2,1.1E1,7E1,1.7E1,1.03E2],"tree_param":{"num_deleted":"0","num_feature":"25","num_nodes":"15","size_leaf_vector":"0"}},{"base_weights":[4.5687427E2,1.9103069E2,1.6110629E4,2.2451685E3,-1.772447E2,6.3646934E4,1.4634819E4,-1.9326114E2,4.801895E3,6.0219745E2,-3.2347992E2,2.1586123E5,1.3537563E3,-9.748371E3,1.608291E4],"categories":[],"categories_nodes":[],"categories_segments":[],"categories_sizes":[],"default_left":[true,true,true,true,true,true,true,false,false,false,false,false,false,false,false],"id":41,"left_children":[1,3,5,7,9,11,13,-1,-1,-1,-1,-1,-1,-1,-1],"loss_changes":[8.369602E10,1.4962061E10,2.2763512E10,1.8746743E10,1.9118548E9,9.321359E10,1.1675394E10,0E0,0E0,0E0,0E0,0E0,0E0,0E0,0E0],"parents":[2147483647,0,0,1,1,2,2,3,3,4,4,5,5,6,6],"right_children":[2,4,6,8,10,12,14,-1,-1,-1,-1,-1,-1,-1,-1],"split_conditions":[6.1644238E1,-1.1243618E2,6.19828E1,4.05493E1,-9.8479546E1,5.708411E0,-1.5996281E2,-7.7304454E0,1.9207579E2,2.4087898E1,-1.2939197E1,8.634449E3,5.4150253E1,-3.8993484E2,6.433164E2],"split_indices":[0,1,0,0,1,2,1,0,0,0,0,0,0,0,0],"split_type":[0,0,0,0,0,0,0,0,0,0,0,0,0,0,0],"sum_hessian":[2.0112E4,1.9777E4,3.35E2,3.006E3,1.6771E4,9E0,3.26E2,1.539E3,1.467E3,2.649E3,1.4122E4,2E0,7E0,1.8E1,3.08E2],"tree_param":{"num_deleted":"0","num_feature":"25","num_nodes":"15","size_leaf_vector":"0"}},{"base_weights":[3.21679E2,9.109255E1,2.6853018E3,7.481079E1,5.0952783E3,5.1712114E3,3.1015356E2,-9.014442E1,4.719071E2,2.2548426E4,3.1512073E2,4.695077E3,9.011749E4,9.617747E3,-5.962525E2],"categories":[],"categories_nodes":[],"categories_segments":[],"categories_sizes":[],"default_left":[true,true,true,true,true,true,true,false,false,false,false,false,false,false,false],"id":42,"left_children":[1,3,5,7,9,11,13,-1,-1,-1,-1,-1,-1,-1,-1],"loss_changes":[1.1042348E10,1.503805E9,1.063161E10,1.2054154E9,4.9877053E9,3.522384E10,7.782129E9,0E0,0E0,0E0,0E0,0E0,0E0,0E0,0E0],"parents":[2147483647,0,0,1,1,2,2,3,3,4,4,5,5,6,6],"right_children":[2,4,6,8,10,12,14,-1,-1,-1,-1,-1,-1,-1,-1],"split_conditions":[5E-1,3.3524055E1,1.9944176E1,1.7408617E1,3.3710724E1,1.993756E1,1.6404263E1,-3.6057765E0,1.8876284E1,9.01937E2,1.2604829E1,1.8780309E2,3.6046997E3,3.8470987E2,-2.38501E1],"split_indices":[12,2,2,2,2,2,3,0,0,0,0,0,0,0,0],"split_type":[0,0,0,0,0,0,0,0,0,0,0,0,0,0,0],"sum_hessian":[2.026E4,1.846E4,1.8E3,1.8401E4,5.9E1,8.79E2,9.21E2,1.3001E4,5.4E3,1.2E1,4.7E1,8.75E2,4E0,8.1E1,8.4E2],"tree_param":{"num_deleted":"0","num_feature":"25","num_nodes":"15","size_leaf_vector":"0"}},{"base_weights":[3.5854794E2,1.9632675E2,9.383534E3,2.7902515E0,1.1236846E3,1.1321812E4,-7.256728E3,-6.9291016E1,5.537968E2,3.07842E2,4.160914E3,8.1599775E3,3.8823137E4,-2.0799828E2,-1.6027192E4],"categories":[],"categories_nodes":[],"categories_segments":[],"categories_sizes":[],"default_left":[true,true,true,true,true,true,true,false,false,false,false,false,false,false,false],"id":43,"left_children":[1,3,5,7,9,11,13,-1,-1,-1,-1,-1,-1,-1,-1],"loss_changes":[2.9671455E10,3.5735498E9,1.1612543E10,6.543294E8,8.5175706E9,2.7628462E10,2.337485E9,0E0,0E0,0E0,0E0,0E0,0E0,0E0,0E0],"parents":[2147483647,0,0,1,1,2,2,3,3,4,4,5,5,6,6],"right_children":[2,4,6,8,10,12,14,-1,-1,-1,-1,-1,-1,-1,-1],"split_conditions":[6.1185932E1,4.153087E1,6.6909454E1,5E-1,5E-1,6.615195E1,5E-1,-2.7716405E0,2.2151873E1,1.231368E1,1.6643655E2,3.263991E2,1.5529254E3,-8.319931E0,-6.410877E2],"split_indices":[0,0,0,6,7,0,12,0,0,0,0,0,0,0,0],"split_type":[0,0,0,0,0,0,0,0,0,0,0,0,0,0,0],"sum_hessian":[2.0267E4,1.991E4,3.57E2,1.6473E4,3.437E3,3.2E2,3.7E1,1.4568E4,1.905E3,2.71E3,7.27E2,2.88E2,3.2E1,2.1E1,1.6E1],"tree_param":{"num_deleted":"0","num_feature":"25","num_nodes":"15","size_leaf_vector":"0"}},{"base_weights":[2.8776437E2,1.2659599E2,1.9405538E3,4.8705287E0,1.1340983E3,1.4956584E2,6.8194785E3,-1.4119741E1,1.0071806E4,1.8129609E3,-4.2279306E2,-5.6686714E1,1.0401435E4,1.1658223E4,1.750795E3],"categories":[],"categories_nodes":[],"categories_segments":[],"categories_sizes":[],"default_left":[true,true,true,true,true,true,true,false,false,false,false,false,false,false,false],"id":44,"left_children":[1,3,5,7,9,11,13,-1,-1,-1,-1,-1,-1,-1,-1],"loss_changes":[5.3691203E9,2.252482E9,1.5647803E10,3.1330557E9,2.0931994E9,2.7722836E9,1.1776029E10,0E0,0E0,0E0,0E0,0E0,0E0,0E0,0E0],"parents":[2147483647,0,0,1,1,2,2,3,3,4,4,5,5,6,6],"right_children":[2,4,6,8,10,12,14,-1,-1,-1,-1,-1,-1,-1,-1],"split_conditions":[5E-1,5E-1,5E-1,3.3690536E1,2.6424927E1,3.1668133E1,1.7144203E1,-5.6478965E-1,4.0287222E2,7.251843E1,-1.6911722E1,-2.2674685E0,4.1605737E2,4.663289E2,7.00318E1],"split_indices":[12,7,18,2,2,2,2,0,0,0,0,0,0,0,0],"split_type":[0,0,0,0,0,0,0,0,0,0,0,0,0,0,0],"sum_hessian":[2.0156E4,1.8366E4,1.79E3,1.6387E4,1.979E3,1.31E3,4.8E2,1.6357E4,3E1,1.378E3,6.01E2,1.285E3,2.5E1,2.45E2,2.35E2],"tree_param":{"num_deleted":"0","num_feature":"25","num_nodes":"15","size_leaf_vector":"0"}},{"base_weights":[3.016075E2,1.0877826E2,1.2521049E4,-1.5788073E1,1.2760306E3,1.0701121E4,8.20003E4,-1.3536089E2,9.0976807E2,-4.72287E2,3.0508345E3,3.281715E4,6.372593E3,1.301621E4,1.5064766E5],"categories":[],"categories_nodes":[],"categories_segments":[],"categories_sizes":[],"default_left":[true,true,true,true,true,true,true,false,false,false,false,false,false,false,false],"id":45,"left_children":[1,3,5,7,9,11,13,-1,-1,-1,-1,-1,-1,-1,-1],"loss_changes":[4.7451324E10,2.8828498E9,3.8807757E10,1.9828773E9,5.933577E9,2.9100397E10,3.5527156E10,0E0,0E0,0E0,0E0,0E0,0E0,0E0,0E0],"parents":[2147483647,0,0,1,1,2,2,3,3,4,4,5,5,6,6],"right_children":[2,4,6,8,10,12,14,-1,-1,-1,-1,-1,-1,-1,-1],"split_conditions":[6.2480164E1,5E-1,2.645E1,5E-1,3.7855965E1,6.381855E1,6.42724E1,-5.4144354E0,3.639072E1,-1.889148E1,1.2203338E2,1.3126859E3,2.549037E2,5.206484E2,6.0259062E3],"split_indices":[0,7,4,11,0,0,0,0,0,0,0,0,0,0,0],"split_type":[0,0,0,0,0,0,0,0,0,0,0,0,0,0,0],"sum_hessian":[2.0138E4,1.9826E4,3.12E2,1.7915E4,1.911E3,3.05E2,7E0,1.5866E4,2.049E3,9.63E2,9.48E2,4.9E1,2.56E2,4E0,3E0],"tree_param":{"num_deleted":"0","num_feature":"25","num_nodes":"15","size_leaf_vector":"0"}},{"base_weights":[3.577235E2,3.2162653E2,4.0284172E3,4.0133717E1,5.7662573E2,2.0169918E4,2.7930686E3,2.12528E4,3.376237E1,3.1648686E4,5.681285E2,3.3257258E3,8.402318E4,4.781731E3,-1.5000542E3],"categories":[],"categories_nodes":[],"categories_segments":[],"categories_sizes":[],"default_left":[true,true,true,true,true,true,true,false,false,false,false,false,false,false,false],"id":46,"left_children":[1,3,5,7,9,11,13,-1,-1,-1,-1,-1,-1,-1,-1],"loss_changes":[2.678436E9,1.4375167E9,3.8771092E9,1.2860151E9,2.7589256E9,1.466455E10,1.5758426E9,0E0,0E0,0E0,0E0,0E0,0E0,0E0,0E0],"parents":[2147483647,0,0,1,1,2,2,3,3,4,4,5,5,6,6],"right_children":[2,4,6,8,10,12,14,-1,-1,-1,-1,-1,-1,-1,-1],"split_conditions":[3.1737576E1,9.092627E0,3.1817883E1,-1.8015541E1,9.093906E0,3.1802616E1,5E-1,8.50112E2,1.3504949E0,1.2659474E3,2.2725138E1,1.3302904E2,3.360927E3,1.9126924E2,-6.0002167E1],"split_indices":[2,2,2,2,2,2,21,0,0,0,0,0,0,0,0],"split_type":[0,0,0,0,0,0,0,0,0,0,0,0,0,0,0],"sum_hessian":[2.0222E4,2.0026E4,1.96E2,9.519E3,1.0507E4,1.3E1,1.83E2,2E0,9.517E3,2E0,1.0505E4,1.1E1,2E0,1.25E2,5.8E1],"tree_param":{"num_deleted":"0","num_feature":"25","num_nodes":"15","size_leaf_vector":"0"}},{"base_weights":[3.8167575E2,1.814157E2,1.2404419E4,-6.5758446E1,1.1587579E3,1.7452311E5,1.0963605E4,-9.8759575E1,7.3928955E3,4.4150266E2,4.4812354E3,3.194468E3,1.6225386E4],"categories":[],"categories_nodes":[],"categories_segments":[],"categories_sizes":[],"default_left":[true,true,true,true,true,false,true,false,false,false,false,false,false],"id":47,"left_children":[1,3,5,7,9,-1,11,-1,-1,-1,-1,-1,-1],"loss_changes":[4.8620724E10,4.7988936E9,7.564244E10,3.9034463E9,9.554051E9,0E0,1.3399081E10,0E0,0E0,0E0,0E0,0E0,0E0],"parents":[2147483647,0,0,1,1,2,2,3,3,4,4,6,6],"right_children":[2,4,6,8,10,-1,12,-1,-1,-1,-1,-1,-1],"split_conditions":[6.19729E1,4.0484245E1,6.20531E1,7.0426054E0,5E-1,6.9809243E3,1.6495906E0,-3.950383E0,2.9571582E2,1.7660107E1,1.792494E2,1.2777872E2,6.4901544E2],"split_indices":[0,0,0,5,11,0,5,0,0,0,0,0,0],"split_type":[0,0,0,0,0,0,0,0,0,0,0,0,0],"sum_hessian":[2.0194E4,1.9864E4,3.3E2,1.5855E4,4.009E3,2E0,3.28E2,1.5786E4,6.9E1,3.298E3,7.11E2,1.33E2,1.95E2],"tree_param":{"num_deleted":"0","num_feature":"25","num_nodes":"13","size_leaf_vector":"0"}},{"base_weights":[2.7492462E2,-4.776599E1,6.594789E2,2.1304197E4,-5.3338154E1,2.4865775E4,6.281206E2,5.585655E1,-3.13018E2,6.1251764E2,1.01080766E5,5.9374225E2,5.3733276E3],"categories":[],"categories_nodes":[],"categories_segments":[],"categories_sizes":[],"default_left":[true,true,true,false,true,true,true,false,false,false,false,false,false],"id":48,"left_children":[1,3,5,-1,7,9,11,-1,-1,-1,-1,-1,-1],"loss_changes":[2.497238E9,1.3029078E9,6.9562506E9,0E0,3.1025037E8,2.1864284E10,1.4933274E9,0E0,0E0,0E0,0E0,0E0,0E0],"parents":[2147483647,0,0,1,1,2,2,4,4,5,5,6,6],"right_children":[2,4,6,-1,8,10,12,-1,-1,-1,-1,-1,-1],"split_conditions":[1.2096207E1,-1.667929E1,1.2111178E1,8.5216785E2,2.2933202E0,1.2106602E1,6.9937496E0,2.234262E0,-1.252072E1,2.4500706E1,4.0432305E3,2.374969E1,2.149331E2],"split_indices":[2,2,2,0,5,2,5,0,0,0,0,0,0],"split_type":[0,0,0,0,0,0,0,0,0,0,0,0,0],"sum_hessian":[2.0123E4,1.0942E4,9.181E3,2E0,1.094E4,1.1E1,9.17E3,7.702E3,3.238E3,9E0,2E0,9.105E3,6.5E1],"tree_param":{"num_deleted":"0","num_feature":"25","num_nodes":"13","size_leaf_vector":"0"}},{"base_weights":[4.4182645E2,3.0754523E2,1.6990935E3,1.9290778E2,1.1778853E3,9.491251E2,6.795536E3,2.669545E2,-1.3258412E3,6.7794995E2,5.4829106E3,6.036317E2,1.1108502E4,7.551036E3,-4.030948E3],"categories":[],"categories_nodes":[],"categories_segments":[],"categories_sizes":[],"default_left":[true,true,true,true,true,true,true,false,false,false,false,false,false,false,false],"id":49,"left_children":[1,3,5,7,9,11,13,-1,-1,-1,-1,-1,-1,-1,-1],"loss_changes":[3.4095014E9,1.8206579E9,7.443333E9,1.8139032E9,4.5678495E9,5.9607414E9,2.0697743E9,0E0,0E0,0E0,0E0,0E0,0E0,0E0,0E0],"parents":[2147483647,0,0,1,1,2,2,3,3,4,4,5,5,6,6],"right_children":[2,4,6,8,10,12,14,-1,-1,-1,-1,-1,-1,-1,-1],"split_conditions":[5E-1,5E-1,5E-1,5E-1,5E-1,5E-1,4.5E0,1.067818E1,-5.3033646E1,2.7117998E1,2.1931642E2,2.4145267E1,4.4434006E2,3.0204144E2,-1.6123792E2],"split_indices":[7,11,20,20,20,19,4,0,0,0,0,0,0,0,0],"split_type":[0,0,0,0,0,0,0,0,0,0,0,0,0,0,0],"sum_hessian":[2.0197E4,1.8249E4,1.948E3,1.6126E4,2.123E3,1.699E3,2.49E2,1.5377E4,7.49E2,1.903E3,2.2E2,1.644E3,5.5E1,2.33E2,1.6E1],"tree_param":{"num_deleted":"0","num_feature":"25","num_nodes":"15","size_leaf_vector":"0"}},{"base_weights":[2.7439093E2,1.9676193E2,2.8709416E4,2.2814968E3,-2.0818945E2,7.918399E4,6.179113E3,1.7015991E2,3.7649653E3,7.132941E2,-3.2829874E2,1.1836362E3,1.3447283E5,5.9427295E2,7.637071E4],"categories":[],"categories_nodes":[],"categories_segments":[],"categories_sizes":[],"default_left":[true,true,true,true,true,true,true,false,false,false,false,false,false,false,false],"id":50,"left_children":[1,3,5,7,9,11,13,-1,-1,-1,-1,-1,-1,-1,-1],"loss_changes":[4.447579E10,1.6966503E10,6.19645E10,1.0237842E10,1.862797E9,7.256058E10,1.5193391E10,0E0,0E0,0E0,0E0,0E0,0E0,0E0,0E0],"parents":[2147483647,0,0,1,1,2,2,3,3,4,4,5,5,6,6],"right_children":[2,4,6,8,10,12,14,-1,-1,-1,-1,-1,-1,-1,-1],"split_conditions":[6.67201E1,-1.1243822E2,6.7207596E1,3.981075E1,-1.0081195E2,-1.4931845E2,3.1776109E0,6.8063965E0,1.505986E2,2.8531765E1,-1.3131949E1,4.7345448E1,5.378913E3,2.3770918E1,3.0548284E3],"split_indices":[0,1,0,0,1,1,5,0,0,0,0,0,0,0,0],"split_type":[0,0,0,0,0,0,0,0,0,0,0,0,0,0,0],"sum_hessian":[2.015E4,2.0096E4,5.4E1,3.268E3,1.6828E4,1.6E1,3.8E1,1.349E3,1.919E3,1.94E3,1.4888E4,7E0,9E0,3.6E1,2E0],"tree_param":{"num_deleted":"0","num_feature":"25","num_nodes":"15","size_leaf_vector":"0"}},{"base_weights":[1.6358267E2,7.222305E1,9.150183E2,1.3273064E2,-3.607643E2,5.9097805E4,8.387839E2,-3.8174713E1,2.4137961E2,-4.963229E2,2.9660181E1,1.9404226E3,1.926322E2],"categories":[],"categories_nodes":[],"categories_segments":[],"categories_sizes":[],"default_left":[true,true,true,true,true,false,true,false,false,false,false,false,false],"id":51,"left_children":[1,3,5,7,9,-1,11,-1,-1,-1,-1,-1,-1],"loss_changes":[1.3887404E9,4.7261498E8,9.683975E9,2.9389206E8,1.1707626E8,0E0,1.5591872E9,0E0,0E0,0E0,0E0,0E0,0E0],"parents":[2147483647,0,0,1,1,2,2,3,3,4,4,6,6],"right_children":[2,4,6,8,10,-1,12,-1,-1,-1,-1,-1,-1],"split_conditions":[4.331421E0,5E-1,4.333433E0,5.587542E-1,3.2903538E0,2.363912E3,4.759583E0,-1.5269885E0,9.655184E0,-1.9852917E1,1.1864072E0,7.7616905E1,7.705288E0],"split_indices":[5,6,5,5,5,0,5,0,0,0,0,0,0],"split_type":[0,0,0,0,0,0,0,0,0,0,0,0,0],"sum_hessian":[2.0229E4,1.8037E4,2.192E3,1.5826E4,2.211E3,2E0,2.19E3,6.151E3,9.675E3,1.641E3,5.7E2,8.09E2,1.381E3],"tree_param":{"num_deleted":"0","num_feature":"25","num_nodes":"13","size_leaf_vector":"0"}},{"base_weights":[2.4747586E2,5.5662094E1,1.255743E4,1.1016278E3,-3.1178622E2,-6.379317E3,1.7982549E4,-6.014386E2,1.5896306E3,5.748332E2,-3.542304E2,2.408778E4,-9.046436E3,1.6359091E4,1.488791E5],"categories":[],"categories_nodes":[],"categories_segments":[],"categories_sizes":[],"default_left":[true,true,true,true,true,true,true,false,false,false,false,false,false,false,false],"id":52,"left_children":[1,3,5,7,9,11,13,-1,-1,-1,-1,-1,-1,-1,-1],"loss_changes":[4.7839703E10,7.6681743E9,3.203396E10,4.311623E9,5.558029E8,5.863306E9,4.9308287E10,0E0,0E0,0E0,0E0,0E0,0E0,0E0,0E0],"parents":[2147483647,0,0,1,1,2,2,3,3,4,4,5,5,6,6],"right_children":[2,4,6,8,10,12,14,-1,-1,-1,-1,-1,-1,-1,-1],"split_conditions":[6.264972E1,-1.0011427E2,-1.5565245E2,-1.2019147E2,2.726508E1,6.290619E1,2.195E1,-2.4057543E1,6.3585224E1,2.2993326E1,-1.4169216E1,9.6351117E2,-3.6185742E2,6.5436365E2,5.9551636E3],"split_indices":[0,1,1,1,0,0,4,0,0,0,0,0,0,0,0],"split_type":[0,0,0,0,0,0,0,0,0,0,0,0,0,0,0],"sum_hessian":[2.026E4,1.995E4,3.1E2,5.186E3,1.4764E4,6.9E1,2.41E2,1.155E3,4.031E3,6.74E2,1.409E4,5E0,6.4E1,2.39E2,2E0],"tree_param":{"num_deleted":"0","num_feature":"25","num_nodes":"15","size_leaf_vector":"0"}},{"base_weights":[1.6601408E2,1.4749358E3,-3.131975E2,5.4871675E3,1.1683262E3,-2.7025815E2,-1.0782664E3,3.8245957E3,1.1108948E5,-1.5661099E3,1.9179539E3,1.16533806E2,-3.2075925E2,-1.989369E3,-3.615371E2],"categories":[],"categories_nodes":[],"categories_segments":[],"categories_sizes":[],"default_left":[true,true,true,true,true,true,true,false,false,false,false,false,false,false,false],"id":53,"left_children":[1,3,5,7,9,11,13,-1,-1,-1,-1,-1,-1,-1,-1],"loss_changes":[1.2530889E10,6.5807585E9,4.8016627E8,6.632784E10,1.0200082E10,2.7052813E8,5.0668102E8,0E0,0E0,0E0,0E0,0E0,0E0,0E0,0E0],"parents":[2147483647,0,0,1,1,2,2,3,3,4,4,5,5,6,6],"right_children":[2,4,6,8,10,12,14,-1,-1,-1,-1,-1,-1,-1,-1],"split_conditions":[-1.00324356E2,-1.419774E2,5E-1,-1.4229575E2,-1.2018097E2,-9.57947E1,5E-1,1.5298383E2,4.443579E3,-6.2644394E1,7.6718155E1,4.661352E0,-1.283037E1,-7.957476E1,-1.4461484E1],"split_indices":[1,1,12,1,1,1,21,0,0,0,0,0,0,0,0],"split_type":[0,0,0,0,0,0,0,0,0,0,0,0,0,0,0],"sum_hessian":[1.9976E4,5.353E3,1.4623E4,3.79E2,4.974E3,1.3847E4,7.76E2,3.74E2,5E0,1.07E3,3.904E3,1.599E3,1.2248E4,3.41E2,4.35E2],"tree_param":{"num_deleted":"0","num_feature":"25","num_nodes":"15","size_leaf_vector":"0"}},{"base_weights":[3.678869E2,1.7361877E2,1.272801E4,7.6660065E2,-3.1644675E2,1.880893E5,1.1081161E4,6.904454E2,3.9073133E4,-3.080082E2,-1.0662906E4,5.165289E3,3.2200977E4],"categories":[],"categories_nodes":[],"categories_segments":[],"categories_sizes":[],"default_left":[true,true,true,true,true,false,true,false,false,false,false,false,false],"id":54,"left_children":[1,3,5,7,9,-1,11,-1,-1,-1,-1,-1,-1],"loss_changes":[4.8547172E10,5.78514E9,8.856456E10,2.6254975E10,9.488352E8,0E0,3.869658E10,0E0,0E0,0E0,0E0,0E0,0E0],"parents":[2147483647,0,0,1,1,2,2,3,3,4,4,6,6],"right_children":[2,4,6,8,10,-1,12,-1,-1,-1,-1,-1,-1],"split_conditions":[6.19729E1,4.1386086E1,6.224335E1,4.129351E1,6.1393013E1,7.523572E3,6.257054E1,2.7617815E1,1.5629253E3,-1.2320328E1,-4.2651624E2,2.0661156E2,1.2880391E3],"split_indices":[0,3,0,3,0,0,3,0,0,0,0,0,0],"split_type":[0,0,0,0,0,0,0,0,0,0,0,0,0],"sum_hessian":[2.0218E4,1.9906E4,3.12E2,9.007E3,1.0899E4,2E0,3.1E2,8.99E3,1.7E1,1.0891E4,8E0,2.43E2,6.7E1],"tree_param":{"num_deleted":"0","num_feature":"25","num_nodes":"13","size_leaf_vector":"0"}},{"base_weights":[2.7560638E2,7.2120026E2,-9.233708E1,7.023666E2,6.0318598E4,2.8878845E2,-2.4923674E2,4.809192E2,4.907354E3,-3.925924E-1,4.9162727E4,-6.1589264E2,-1.5920135E2],"categories":[],"categories_nodes":[],"categories_segments":[],"categories_sizes":[],"default_left":[true,true,true,true,false,true,true,false,false,false,false,false,false],"id":55,"left_children":[1,3,5,7,-1,9,11,-1,-1,-1,-1,-1,-1],"loss_changes":[3.2900856E9,1.0150762E10,6.573579E8,8.4473994E9,0E0,4.530975E10,2.5697536E8,0E0,0E0,0E0,0E0,0E0,0E0],"parents":[2147483647,0,0,1,1,2,2,3,3,5,5,6,6],"right_children":[2,4,6,8,-1,10,12,-1,-1,-1,-1,-1,-1],"split_conditions":[4.221504E1,4.2201797E1,2.2929845E0,4.401409E0,2.412744E3,2.2899404E0,2.7318573E0,1.9236767E1,1.9629416E2,-1.5703695E-2,1.966509E3,-2.4635706E1,-6.368054E0],"split_indices":[3,3,5,5,0,5,5,0,0,0,0,0,0],"split_type":[0,0,0,0,0,0,0,0,0,0,0,0,0],"sum_hessian":[2.0066E4,9.075E3,1.0991E4,9.073E3,2E0,3.205E3,7.786E3,8.62E3,4.53E2,3.187E3,1.8E1,1.534E3,6.252E3],"tree_param":{"num_deleted":"0","num_feature":"25","num_nodes":"13","size_leaf_vector":"0"}},{"base_weights":[1.8844305E2,6.8461807E3,4.5549976E1,5.804988E3,1.592555E5,1.3983342E3,-1.8681659E2,1.3314367E4,1.2081323E3,-7.54563E2,3.390844E3,-2.062242E2,4.0723828E3],"categories":[],"categories_nodes":[],"categories_segments":[],"categories_sizes":[],"default_left":[true,true,true,true,false,true,true,false,false,false,false,false,false],"id":56,"left_children":[1,3,5,7,-1,9,11,-1,-1,-1,-1,-1,-1],"loss_changes":[1.9281447E10,6.6785755E10,6.237664E9,1.4617557E10,0E0,1.2480227E10,1.4005678E9,0E0,0E0,0E0,0E0,0E0,0E0],"parents":[2147483647,0,0,1,1,2,2,3,3,5,5,6,6],"right_children":[2,4,6,8,-1,10,12,-1,-1,-1,-1,-1,-1],"split_conditions":[-1.2390639E2,-1.2392737E2,-1.1250041E2,4.026571E1,6.3702197E3,-1.1892945E2,7.088291E0,5.3257465E2,4.832529E1,-3.0182518E1,1.3563376E2,-8.248968E0,1.6289531E2],"split_indices":[1,1,1,3,0,1,5,0,0,0,0,0,0],"split_type":[0,0,0,0,0,0,0,0,0,0,0,0,0],"sum_hessian":[2.0267E4,4.25E2,1.9842E4,4.23E2,2E0,2.908E3,1.6934E4,1.6E2,2.63E2,1.398E3,1.51E3,1.6858E4,7.6E1],"tree_param":{"num_deleted":"0","num_feature":"25","num_nodes":"13","size_leaf_vector":"0"}},{"base_weights":[2.718922E2,1.0568523E4,7.0048256E1,8.948643E3,9.969135E4,1.041334E3,-2.6683347E2,1.2512297E4,-2.3692741E2,4.5319992E4,1.622167E5,-1.5903568E3,1.578057E3,-2.2298094E2,-9.873109E2],"categories":[],"categories_nodes":[],"categories_segments":[],"categories_sizes":[],"default_left":[true,true,true,true,true,true,true,false,false,false,false,false,false,false,false],"id":57,"left_children":[1,3,5,7,9,11,13,-1,-1,-1,-1,-1,-1,-1,-1],"loss_changes":[4.203502E10,5.537399E10,6.491352E9,1.2535067E10,1.7010115E10,7.218357E9,4.651968E8,0E0,0E0,0E0,0E0,0E0,0E0,0E0,0E0],"parents":[2147483647,0,0,1,1,2,2,3,3,4,4,5,5,6,6],"right_children":[2,4,6,8,10,12,14,-1,-1,-1,-1,-1,-1,-1,-1],"split_conditions":[-1.4196825E2,-1.4225491E2,-1.0011427E2,5E-1,2.7491498E0,-1.20696045E2,5E-1,5.0049185E2,-9.477097E0,1.8127997E3,6.488668E3,-6.361427E1,6.312228E1,-8.919237E0,-3.9492435E1],"split_indices":[1,1,1,11,5,1,11,0,0,0,0,0,0,0,0],"split_type":[0,0,0,0,0,0,0,0,0,0,0,0,0,0,0],"sum_hessian":[2.0225E4,3.88E2,1.9837E4,3.82E2,6E0,5.108E3,1.4729E4,2.75E2,1.07E2,4E0,2E0,8.65E2,4.243E3,1.3885E4,8.44E2],"tree_param":{"num_deleted":"0","num_feature":"25","num_nodes":"15","size_leaf_vector":"0"}},{"base_weights":[1.8462177E2,7.468372E1,6.548316E3,1.4773763E3,-1.75587E2,7.519888E4,4.9109546E3,-6.3372943E2,3.8051274E3,1.9414473E1,-6.296738E2,1.5177088E4,1.7568547E5,8.595523E3,-1.3104522E4],"categories":[],"categories_nodes":[],"categories_segments":[],"categories_sizes":[],"default_left":[true,true,true,true,true,true,true,false,false,false,false,false,false,false,false],"id":58,"left_children":[1,3,5,7,9,11,13,-1,-1,-1,-1,-1,-1,-1,-1],"loss_changes":[1.4000815E10,6.906788E9,3.788534E10,1.4640554E10,1.4783889E9,4.5103743E10,2.2191354E10,0E0,0E0,0E0,0E0,0E0,0E0,0E0,0E0],"parents":[2147483647,0,0,1,1,2,2,3,3,4,4,5,5,6,6],"right_children":[2,4,6,8,10,12,14,-1,-1,-1,-1,-1,-1,-1,-1],"split_conditions":[6.1644238E1,-1.12954994E2,6.1999702E1,-1.1892988E2,3.5957916E1,-1.5768285E2,6.593793E1,-2.5349176E1,1.522051E2,7.765789E-1,-2.5186953E1,6.070835E2,7.0274185E3,3.4382092E2,-5.241809E2],"split_indices":[0,1,0,1,0,1,3,0,0,0,0,0,0,0,0],"split_type":[0,0,0,0,0,0,0,0,0,0,0,0,0,0,0],"sum_hessian":[2.0012E4,1.9673E4,3.39E2,2.978E3,1.6695E4,7E0,3.32E2,1.562E3,1.416E3,1.168E4,5.015E3,5E0,2E0,2.76E2,5.6E1],"tree_param":{"num_deleted":"0","num_feature":"25","num_nodes":"15","size_leaf_vector":"0"}},{"base_weights":[3.4017114E2,7.072102E1,1.691601E4,5.8601447E2,-3.1229364E2,1.5869638E5,1.5604236E4,1.196891E1,3.8285981E3,-3.3304837E2,9.993503E3,1.1270757E4,3.8335484E4],"categories":[],"categories_nodes":[],"categories_segments":[],"categories_sizes":[],"default_left":[true,true,true,true,true,false,true,false,false,false,false,false,false],"id":59,"left_children":[1,3,5,7,9,-1,11,-1,-1,-1,-1,-1,-1],"loss_changes":[8.987046E10,3.908152E9,5.773761E10,1.5715414E10,2.4324398E9,0E0,3.1137292E10,0E0,0E0,0E0,0E0,0E0,0E0],"parents":[2147483647,0,0,1,1,2,2,3,3,4,4,6,6],"right_children":[2,4,6,8,10,-1,12,-1,-1,-1,-1,-1,-1],"split_conditions":[6.19729E1,3.718231E1,6.20531E1,9.186684E0,6.0424866E1,6.347855E3,6.433473E1,4.787564E-1,1.5314392E2,-1.3321935E1,3.997401E2,4.5083026E2,1.5334193E3],"split_indices":[0,3,0,3,0,0,3,0,0,0,0,0,0],"split_type":[0,0,0,0,0,0,0,0,0,0,0,0,0],"sum_hessian":[2.0121E4,1.98E4,3.21E2,8.442E3,1.1358E4,2E0,3.19E2,7.173E3,1.269E3,1.1336E4,2.2E1,2.69E2,5E1],"tree_param":{"num_deleted":"0","num_feature":"25","num_nodes":"13","size_leaf_vector":"0"}},{"base_weights":[2.3996939E2,1.18902084E2,2.2753701E4,2.0385311E3,-2.4272702E2,1.3594342E5,1.494221E4,-3.2205942E2,4.2195415E3,-1.1661649E2,-8.887374E2,3.552911E4,2.6586703E5,3.3510723E3,6.930618E4],"categories":[],"categories_nodes":[],"categories_segments":[],"categories_sizes":[],"default_left":[true,true,true,true,true,true,true,false,false,false,false,false,false,false,false],"id":60,"left_children":[1,3,5,7,9,11,13,-1,-1,-1,-1,-1,-1,-1,-1],"loss_changes":[5.4963286E10,1.3925157E10,9.362405E10,1.6372572E10,1.3750908E9,8.136271E10,6.3985164E10,0E0,0E0,0E0,0E0,0E0,0E0,0E0,0E0],"parents":[2147483647,0,0,1,1,2,2,3,3,4,4,5,5,6,6],"right_children":[2,4,6,8,10,12,14,-1,-1,-1,-1,-1,-1,-1,-1],"split_conditions":[6.5667E1,-1.12724205E2,6.57583E1,4.058541E1,3.9744305E1,6.57383E1,2.724805E0,-1.2882377E1,1.6878166E2,-4.6646595E0,-3.5549496E1,1.4211643E3,1.0634681E4,1.340429E2,2.772247E3],"split_indices":[0,1,0,0,0,0,5,0,0,0,0,0,0,0,0],"split_type":[0,0,0,0,0,0,0,0,0,0,0,0,0,0,0],"sum_hessian":[2.0165E4,2.0058E4,1.07E2,3.179E3,1.6879E4,6E0,1.01E2,1.527E3,1.652E3,1.4123E4,2.756E3,4E0,2E0,8.4E1,1.7E1],"tree_param":{"num_deleted":"0","num_feature":"25","num_nodes":"15","size_leaf_vector":"0"}},{"base_weights":[2.2457057E2,2.7788326E1,1.1847755E4,-1.7677258E2,8.413918E2,1.5413466E5,1.0603394E4,-2.640802E2,7.27093E2,3.0804146E3,-4.4218033E2,5.835705E3,2.8948676E4],"categories":[],"categories_nodes":[],"categories_segments":[],"categories_sizes":[],"default_left":[true,true,true,true,true,false,true,false,false,false,false,false,false],"id":61,"left_children":[1,3,5,7,9,-1,11,-1,-1,-1,-1,-1,-1],"loss_changes":[4.6279324E10,3.3117573E9,5.824178E10,1.2549704E9,1.1490798E10,0E0,2.9143327E10,0E0,0E0,0E0,0E0,0E0,0E0],"parents":[2147483647,0,0,1,1,2,2,3,3,4,4,6,6],"right_children":[2,4,6,8,10,-1,12,-1,-1,-1,-1,-1,-1],"split_conditions":[6.19729E1,4.0496506E1,6.20831E1,4.4038515E0,3.487394E1,6.165386E3,2.7233496E0,-1.0563208E1,2.908372E1,1.23216576E2,-1.7687212E1,2.3342819E2,1.157947E3],"split_indices":[0,0,0,5,3,0,5,0,0,0,0,0,0],"split_type":[0,0,0,0,0,0,0,0,0,0,0,0,0],"sum_hessian":[2.0233E4,1.9897E4,3.36E2,1.59E4,3.997E3,2E0,3.34E2,1.45E4,1.4E3,1.456E3,2.541E3,2.66E2,6.8E1],"tree_param":{"num_deleted":"0","num_feature":"25","num_nodes":"13","size_leaf_vector":"0"}},{"base_weights":[1.4753313E2,5.017099E2,-1.5393996E2,-5.4149307E1,2.58963E3,-1.7065156E3,-1.168223E2,-1.4783295E2,1.01812885E3,5.49327E4,2.4581047E3,-1.8576664E3,4.9910464E3,3.8423895E4,-1.3437381E2],"categories":[],"categories_nodes":[],"categories_segments":[],"categories_sizes":[],"default_left":[true,true,true,true,true,true,true,false,false,false,false,false,false,false,false],"id":62,"left_children":[1,3,5,7,9,11,13,-1,-1,-1,-1,-1,-1,-1,-1],"loss_changes":[2.1579692E9,1.0785314E10,6.290022E8,7.3745344E8,1.333545E10,2.6594778E8,7.2179446E9,0E0,0E0,0E0,0E0,0E0,0E0,0E0,0E0],"parents":[2147483647,0,0,1,1,2,2,3,3,4,4,5,5,6,6],"right_children":[2,4,6,8,10,12,14,-1,-1,-1,-1,-1,-1,-1,-1],"split_conditions":[4.3051193E1,9.143055E0,4.4960217E1,5E-1,1.033218E1,5E-1,4.499408E1,-5.9133177E0,4.072515E1,2.1973079E3,9.832419E1,-7.4306656E1,1.9964185E2,1.5369557E3,-5.3749523E0],"split_indices":[3,3,3,7,3,22,3,0,0,0,0,0,0,0,0],"split_type":[0,0,0,0,0,0,0,0,0,0,0,0,0,0,0],"sum_hessian":[2.0209E4,9.292E3,1.0917E4,7.339E3,1.953E3,2.54E2,1.0663E4,6.75E3,5.89E2,4E0,1.949E3,2.49E2,5E0,4E0,1.0659E4],"tree_param":{"num_deleted":"0","num_feature":"25","num_nodes":"15","size_leaf_vector":"0"}},{"base_weights":[3.0154634E1,6.2721313E3,-4.3325623E1,2.598776E3,5.3862586E4,-1.0938377E4,1.17951565E1,-7.9136157E3,1.1588855E4,2.58263E5,1.1447946E4,-1.1979186E4,2.8355344E4,1.3161038E3,-2.1542673E2],"categories":[],"categories_nodes":[],"categories_segments":[],"categories_sizes":[],"default_left":[true,true,true,true,true,true,true,false,false,false,false,false,false,false,false],"id":63,"left_children":[1,3,5,7,9,11,13,-1,-1,-1,-1,-1,-1,-1,-1],"loss_changes":[9.297709E9,4.111175E10,1.2032525E10,2.0856693E10,1.436096E11,4.4159017E9,5.908583E9,0E0,0E0,0E0,0E0,0E0,0E0,0E0,0E0],"parents":[2147483647,0,0,1,1,2,2,3,3,4,4,5,5,6,6],"right_children":[2,4,6,8,10,12,14,-1,-1,-1,-1,-1,-1,-1,-1],"split_conditions":[-1.5139786E2,-1.522417E2,-1.4527065E2,-1.5736026E2,-1.5221701E2,2.645E1,-1.1264615E2,-3.1654462E2,4.635542E2,1.033052E4,4.5791785E2,-4.7916742E2,1.1342137E3,5.264415E1,-8.617069E0],"split_indices":[1,1,1,1,1,4,1,0,0,0,0,0,0,0,0],"split_type":[0,0,0,0,0,0,0,0,0,0,0,0,0,0,0],"sum_hessian":[2.027E4,2.35E2,2.0035E4,2.19E2,1.6E1,1E2,1.9935E4,1.01E2,1.18E2,2E0,1.4E1,9.8E1,2E0,2.957E3,1.6978E4],"tree_param":{"num_deleted":"0","num_feature":"25","num_nodes":"15","size_leaf_vector":"0"}},{"base_weights":[2.0963753E2,1.5094846E4,2.0678194E2,2.2641658E2,-1.6889242E3,2.7473335E1,4.0253284E2,-1.7802832E3,1.7067136E3],"categories":[],"categories_nodes":[],"categories_segments":[],"categories_sizes":[],"default_left":[true,false,true,true,true,false,false,false,false],"id":64,"left_children":[1,-1,3,5,7,-1,-1,-1,-1],"loss_changes":[8.54742E8,0E0,7.510423E8,6.994318E8,6.6775936E7,0E0,0E0,0E0,0E0],"parents":[2147483647,0,0,2,2,3,3,4,4],"right_children":[2,-1,4,6,8,-1,-1,-1,-1],"split_conditions":[-1.667929E1,6.037938E2,5E-1,9.092627E0,3.0460886E1,1.0989333E0,1.6101313E1,-7.121133E1,6.826855E1],"split_indices":[2,0,22,2,2,0,0,0,0],"split_type":[0,0,0,0,0,0,0,0,0],"sum_hessian":[2.0171E4,3E0,2.0168E4,1.9962E4,2.06E2,9.374E3,1.0588E4,2.01E2,5E0],"tree_param":{"num_deleted":"0","num_feature":"25","num_nodes":"9","size_leaf_vector":"0"}},{"base_weights":[1.4790971E2,-3.119635E0,8.773735E3,1.2460111E3,-2.1884735E2,1.7532358E5,7.3639062E3,-3.7444745E2,3.1367864E3,2.0459772E1,-4.7690433E2,-4.0264705E3,1.4599171E4],"categories":[],"categories_nodes":[],"categories_segments":[],"categories_sizes":[],"default_left":[true,true,true,true,true,false,true,false,false,false,false,false,false],"id":65,"left_children":[1,3,5,7,9,-1,11,-1,-1,-1,-1,-1,-1],"loss_changes":[2.6108312E10,5.3079875E9,7.986815E10,8.88901E9,1.0372964E9,0E0,2.8306061E10,0E0,0E0,0E0,0E0,0E0,0E0],"parents":[2147483647,0,0,1,1,2,2,3,3,4,4,6,6],"right_children":[2,4,6,8,10,-1,12,-1,-1,-1,-1,-1,-1],"split_conditions":[6.195765E1,-1.12642E2,6.21E1,-1.1857805E2,3.4083237E1,7.012943E3,1.649149E0,-1.4977898E1,1.2547145E2,8.1839085E-1,-1.9076172E1,-1.610588E2,5.839668E2],"split_indices":[0,1,0,1,0,0,5,0,0,0,0,0,0],"split_type":[0,0,0,0,0,0,0,0,0,0,0,0,0],"sum_hessian":[2.004E4,1.9696E4,3.44E2,2.9E3,1.6796E4,2E0,3.42E2,1.562E3,1.338E3,8.715E3,8.081E3,1.33E2,2.09E2],"tree_param":{"num_deleted":"0","num_feature":"25","num_nodes":"13","size_leaf_vector":"0"}},{"base_weights":[2.3215918E2,9.1651985E1,1.1445216E4,1.0985924E2,-1.5842228E4,1.3931505E5,9.937735E3,8.996566E1,1.3412465E4,-1.9270133E4,-9.645712E3,-3.67783E3,2.05718E4],"categories":[],"categories_nodes":[],"categories_segments":[],"categories_sizes":[],"default_left":[true,true,true,true,true,false,true,false,false,false,false,false,false],"id":66,"left_children":[1,3,5,7,9,-1,11,-1,-1,-1,-1,-1,-1],"loss_changes":[3.1936135E10,5.809777E9,4.7168807E10,5.291385E9,3.261829E8,0E0,3.609658E10,0E0,0E0,0E0,0E0,0E0,0E0],"parents":[2147483647,0,0,1,1,2,2,3,3,4,4,6,6],"right_children":[2,4,6,8,10,-1,12,-1,-1,-1,-1,-1,-1],"split_conditions":[6.38087E1,6.3477448E1,6.382345E1,6.23929E1,6.36836E1,5.5726016E3,5E-1,3.5986264E0,5.364986E2,-7.708053E2,-3.8582846E2,-1.471132E2,8.22872E2],"split_indices":[0,0,0,0,0,0,12,0,0,0,0,0,0],"split_type":[0,0,0,0,0,0,0,0,0,0,0,0,0],"sum_hessian":[2.027E4,2.002E4,2.5E2,1.9998E4,2.2E1,2E0,2.48E2,1.9969E4,2.9E1,1.3E1,9E0,1.09E2,1.39E2],"tree_param":{"num_deleted":"0","num_feature":"25","num_nodes":"13","size_leaf_vector":"0"}},{"base_weights":[1.2827359E2,1.1111763E3,-2.242602E2,1.0821665E3,5.4427676E4,-2.1553496E3,-2.147861E2,-1.4074875E4,1.1507249E3,-2.2866494E3,-1.2370895E3,3.580732E3,-2.2693745E2],"categories":[],"categories_nodes":[],"categories_segments":[],"categories_sizes":[],"default_left":[true,true,true,true,false,true,true,false,false,false,false,false,false],"id":67,"left_children":[1,3,5,7,-1,9,11,-1,-1,-1,-1,-1,-1],"loss_changes":[6.938262E9,8.125121E9,2.6923584E8,5.5045565E9,0E0,6.237472E6,6.7714086E8,0E0,0E0,0E0,0E0,0E0,0E0],"parents":[2147483647,0,0,1,1,2,2,3,3,5,5,6,6],"right_children":[2,4,6,8,-1,10,12,-1,-1,-1,-1,-1,-1],"split_conditions":[-1.0081195E2,-1.0082744E2,-1.00538605E2,-1.6035275E2,2.177107E3,5E-1,-1.0028685E2,-5.62995E2,4.602899E1,-9.146597E1,-4.9483578E1,1.4322928E2,-9.077498E0],"split_indices":[1,1,1,1,0,13,1,0,0,0,0,0,0],"split_type":[0,0,0,0,0,0,0,0,0,0,0,0,0],"sum_hessian":[2.0022E4,5.285E3,1.4737E4,5.283E3,2E0,7.1E1,1.4666E4,2.3E1,5.26E3,6.1E1,1E1,4.6E1,1.462E4],"tree_param":{"num_deleted":"0","num_feature":"25","num_nodes":"13","size_leaf_vector":"0"}},{"base_weights":[-1.0163997E0,-1.14276024E2,7.0026836E3,-4.393176E3,-7.152795E1,5.531617E3,8.555954E4,-3.372995E3,-1.1336047E4,1.0578458E3,-2.5869876E2,9.1176984E4,4.7393877E3,1.853289E5,-7.3557837E3],"categories":[],"categories_nodes":[],"categories_segments":[],"categories_sizes":[],"default_left":[true,true,true,true,true,true,true,false,false,false,false,false,false,false,false],"id":68,"left_children":[1,3,5,7,9,11,13,-1,-1,-1,-1,-1,-1,-1,-1],"loss_changes":[1.6042983E10,3.6402545E9,3.678887E10,1.3615565E9,4.165984E9,2.1128577E10,5.5464436E10,0E0,0E0,0E0,0E0,0E0,0E0,0E0,0E0],"parents":[2147483647,0,0,1,1,2,2,3,3,4,4,5,5,6,6],"right_children":[2,4,6,8,10,12,14,-1,-1,-1,-1,-1,-1,-1,-1],"split_conditions":[6.23929E1,-1.2349754E2,3.175E1,1.4E0,-1.12658295E2,6.2407997E1,1.547435E1,-1.349198E2,-4.5344186E2,4.231383E1,-1.034795E1,3.6470793E3,1.895755E2,7.4131562E3,-2.9423135E2],"split_indices":[0,1,4,4,1,0,2,0,0,0,0,0,0,0,0],"split_type":[0,0,0,0,0,0,0,0,0,0,0,0,0,0,0],"sum_hessian":[2.0223E4,1.9902E4,3.21E2,1.96E2,1.9706E4,3.16E2,5E0,1.72E2,2.4E1,2.801E3,1.6905E4,2E0,3.14E2,2E0,3E0],"tree_param":{"num_deleted":"0","num_feature":"25","num_nodes":"15","size_leaf_vector":"0"}},{"base_weights":[-2.2960112E1,1.3527154E1,-1.113934E4,-1.4818571E2,1.5402192E3,-2.1187717E4,-2.7403245E3,-1.6362881E2,1.4702771E4,-4.7696466E2,3.8412598E3,-2.31367E4,-1.5221398E4,-1.7922148E4,2.0008036E3],"categories":[],"categories_nodes":[],"categories_segments":[],"categories_sizes":[],"default_left":[true,true,true,true,true,true,true,false,false,false,false,false,false,false,false],"id":69,"left_children":[1,3,5,7,9,11,13,-1,-1,-1,-1,-1,-1,-1,-1],"loss_changes":[8.164931E9,4.9539236E9,5.5083315E9,4.1632553E9,8.922106E9,4.532019E7,2.6836782E9,0E0,0E0,0E0,0E0,0E0,0E0,0E0,0E0],"parents":[2147483647,0,0,1,1,2,2,3,3,4,4,5,5,6,6],"right_children":[2,4,6,8,10,12,14,-1,-1,-1,-1,-1,-1,-1,-1],"split_conditions":[6.652865E1,5E-1,5E-1,6.615195E1,3.9619E1,6.7403305E1,6.6910904E1,-6.5451527E0,5.8811084E2,-1.9078587E1,1.5365039E2,-9.2546796E2,-6.088559E2,-7.168859E2,8.003214E1],"split_indices":[0,7,11,0,0,0,0,0,0,0,0,0,0,0,0],"split_type":[0,0,0,0,0,0,0,0,0,0,0,0,0,0,0],"sum_hessian":[2.0129E4,2.0064E4,6.5E1,1.8143E4,1.921E3,2.9E1,3.6E1,1.8125E4,1.8E1,1.024E3,8.97E2,2E1,9E0,8E0,2.8E1],"tree_param":{"num_deleted":"0","num_feature":"25","num_nodes":"15","size_leaf_vector":"0"}},{"base_weights":[3.697898E2,1.9064394E2,1.9758783E3,1.6835658E2,3.2020674E3,1.1364963E3,7.3410625E3,-4.7681885E1,3.140004E2,4.4118927E2,1.9033256E4,2.6567822E2,2.0282424E3,1.0954055E4,4.3090527E3],"categories":[],"categories_nodes":[],"categories_segments":[],"categories_sizes":[],"default_left":[true,true,true,true,true,true,true,false,false,false,false,false,false,false,false],"id":70,"left_children":[1,3,5,7,9,11,13,-1,-1,-1,-1,-1,-1,-1,-1],"loss_changes":[5.828637E9,1.2228623E9,9.147693E9,5.693302E8,5.843417E9,1.3653752E9,2.970494E9,0E0,0E0,0E0,0E0,0E0,0E0,0E0,0E0],"parents":[2147483647,0,0,1,1,2,2,3,3,4,4,5,5,6,6],"right_children":[2,4,6,8,10,12,14,-1,-1,-1,-1,-1,-1,-1,-1],"split_conditions":[5E-1,6.7741604E0,5E-1,1.4609776E0,1.295E1,2.1568723E0,1.8660513E0,-1.9072753E0,1.2560016E1,1.764757E1,7.613302E2,1.0627129E1,8.112969E1,4.3816217E2,1.723621E2],"split_indices":[7,5,20,5,4,5,5,0,0,0,0,0,0,0,0],"split_type":[0,0,0,0,0,0,0,0,0,0,0,0,0,0,0],"sum_hessian":[2.0258E4,1.8226E4,2.032E3,1.8093E4,1.33E2,1.758E3,2.74E2,7.286E3,1.0807E4,1.14E2,1.9E1,8.9E2,8.68E2,1.24E2,1.5E2],"tree_param":{"num_deleted":"0","num_feature":"25","num_nodes":"15","size_leaf_vector":"0"}},{"base_weights":[1.1005372E2,3.9871832E2,-1.5027219E2,-1.5797328E2,2.083858E3,1.7111192E2,-6.019381E2,1.9542975E4,-1.6573683E2,2.164589E4,1.9109388E3,2.1471767E1,4.081019E3,-3.6022766E2,-2.5852136E3],"categories":[],"categories_nodes":[],"categories_segments":[],"categories_sizes":[],"default_left":[true,true,true,true,true,true,true,false,false,false,false,false,false,false,false],"id":71,"left_children":[1,3,5,7,9,11,13,-1,-1,-1,-1,-1,-1,-1,-1],"loss_changes":[1.5251466E9,9.028453E9,1.5491965E9,1.1093332E9,8.048589E9,3.6483927E9,2.126134E9,0E0,0E0,0E0,0E0,0E0,0E0,0E0,0E0],"parents":[2147483647,0,0,1,1,2,2,3,3,4,4,5,5,6,6],"right_children":[2,4,6,8,10,12,14,-1,-1,-1,-1,-1,-1,-1,-1],"split_conditions":[4.5440643E1,1.2020727E1,1.7911652E1,-1.8015541E1,1.2417112E1,1.734011E1,5E-1,7.81719E2,-6.629473E0,8.6583563E2,7.643755E1,8.588707E-1,1.6324075E2,-1.4409106E1,-1.0340854E2],"split_indices":[3,2,2,2,2,2,18,0,0,0,0,0,0,0,0],"split_type":[0,0,0,0,0,0,0,0,0,0,0,0,0,0,0],"sum_hessian":[2.0294E4,9.623E3,1.0671E4,7.234E3,2.389E3,6.235E3,4.436E3,2E0,7.232E3,2E1,2.369E3,6.006E3,2.29E2,3.955E3,4.81E2],"tree_param":{"num_deleted":"0","num_feature":"25","num_nodes":"15","size_leaf_vector":"0"}},{"base_weights":[5.933076E1,3.6282806E2,-1.9044225E2,3.3323352E2,3.987634E4,7.125137E1,-5.960318E2,1.6837343E2,3.278216E3,8.604826E4,5.6797524E3,-1.4419406E2,6.5562354E3,-3.395178E2,-2.7251252E3],"categories":[],"categories_nodes":[],"categories_segments":[],"categories_sizes":[],"default_left":[true,true,true,true,true,true,true,false,false,false,false,false,false,false,false],"id":72,"left_children":[1,3,5,7,9,11,13,-1,-1,-1,-1,-1,-1,-1,-1],"loss_changes":[1.5401117E9,1.0714027E10,1.1829541E9,4.4496415E9,1.0407891E10,9.466374E9,2.3863155E9,0E0,0E0,0E0,0E0,0E0,0E0,0E0,0E0],"parents":[2147483647,0,0,1,1,2,2,3,3,4,4,5,5,6,6],"right_children":[2,4,6,8,10,12,14,-1,-1,-1,-1,-1,-1,-1,-1],"split_conditions":[4.1302296E1,4.1281013E1,1.8657429E1,5E-1,4.1295982E1,5E-1,5E-1,6.734937E0,1.3112865E2,3.4419302E3,2.271901E2,-5.767762E0,2.6224942E2,-1.3580711E1,-1.09005005E2],"split_indices":[3,3,2,20,3,12,18,0,0,0,0,0,0,0,0],"split_type":[0,0,0,0,0,0,0,0,0,0,0,0,0,0,0],"sum_hessian":[2.0315E4,9.171E3,1.1144E4,9.165E3,6E0,6.774E3,4.37E3,8.68E3,4.85E2,2E0,4E0,6.557E3,2.17E2,3.901E3,4.69E2],"tree_param":{"num_deleted":"0","num_feature":"25","num_nodes":"15","size_leaf_vector":"0"}},{"base_weights":[1.26956085E2,-1.33253355E1,1.4313381E4,1.1213368E0,-1.6268955E4,6.350415E3,5.588565E4,-3.484584E1,1.3140289E4,-1.9025191E4,-2.0369474E3,-1.7948832E4,1.4325164E4,1.8107719E5,-8.492341E3],"categories":[],"categories_nodes":[],"categories_segments":[],"categories_sizes":[],"default_left":[true,true,true,true,true,true,true,false,false,false,false,false,false,false,false],"id":73,"left_children":[1,3,5,7,9,11,13,-1,-1,-1,-1,-1,-1,-1,-1],"loss_changes":[4.041666E10,4.7228513E9,6.5525158E10,9.496329E9,6.672517E8,3.274779E10,2.5807292E11,0E0,0E0,0E0,0E0,0E0,0E0,0E0,0E0],"parents":[2147483647,0,0,1,1,2,2,3,3,4,4,5,5,6,6],"right_children":[2,4,6,8,10,12,14,-1,-1,-1,-1,-1,-1,-1,-1],"split_conditions":[6.44546E1,6.42339E1,6.28601E1,6.3558716E1,-1.4629721E2,-1.536125E2,6.710356E1,-1.3938336E0,5.256116E2,-7.610076E2,-8.147789E1,-7.1795325E2,5.7300653E2,7.2430874E3,-3.3969363E2],"split_indices":[0,0,3,0,1,1,3,0,0,0,0,0,0,0,0],"split_type":[0,0,0,0,0,0,0,0,0,0,0,0,0,0,0],"sum_hessian":[2.0308E4,2.011E4,1.98E2,2.0093E4,1.7E1,1.67E2,3.1E1,2.0039E4,5.4E1,1.4E1,3E0,4.1E1,1.26E2,1E1,2.1E1],"tree_param":{"num_deleted":"0","num_feature":"25","num_nodes":"15","size_leaf_vector":"0"}},{"base_weights":[2.00998E2,6.610514E3,6.609711E1,5.5843965E3,1.546992E5,1.3172938E3,-1.4661267E2,-1.0562799E4,7.6551997E3,3.1059494E2,4.8426714E3,-7.53884E1,-1.01039594E3],"categories":[],"categories_nodes":[],"categories_segments":[],"categories_sizes":[],"default_left":[true,true,true,true,false,true,true,false,false,false,false,false,false],"id":74,"left_children":[1,3,5,7,-1,9,11,-1,-1,-1,-1,-1,-1],"loss_changes":[1.7611543E10,6.305946E10,5.3096566E9,1.4041469E10,0E0,1.0286733E10,1.0490044E9,0E0,0E0,0E0,0E0,0E0,0E0],"parents":[2147483647,0,0,1,1,2,2,3,3,5,5,6,6],"right_children":[2,4,6,8,-1,10,12,-1,-1,-1,-1,-1,-1],"split_conditions":[-1.2390639E2,-1.2392903E2,-1.1266171E2,-1.5916791E2,6.187968E3,-1.1570805E2,5E-1,-4.2251193E2,3.0620798E2,1.2423798E1,1.9370685E2,-3.0155358E0,-4.0415836E1],"split_indices":[1,1,1,1,0,1,11,0,0,0,0,0,0],"split_type":[0,0,0,0,0,0,0,0,0,0,0,0,0],"sum_hessian":[2.0368E4,4.19E2,1.9949E4,4.17E2,2E0,2.898E3,1.7051E4,4.7E1,3.7E2,2.255E3,6.43E2,1.5753E4,1.298E3],"tree_param":{"num_deleted":"0","num_feature":"25","num_nodes":"13","size_leaf_vector":"0"}},{"base_weights":[1.3517993E2,5.5601852E1,8.9518207E2,-3.7173477E1,9.028125E2,3.760162E2,2.5011873E3,-5.746323E1,3.0235938E3,2.5936484E3,-7.033E2,2.2875233E2,7.3831504E3,2.159419E4,2.0447512E3],"categories":[],"categories_nodes":[],"categories_segments":[],"categories_sizes":[],"default_left":[true,true,true,true,true,true,true,false,false,false,false,false,false,false,false],"id":75,"left_children":[1,3,5,7,9,11,13,-1,-1,-1,-1,-1,-1,-1,-1],"loss_changes":[1.2250212E9,1.4413106E9,1.5999366E9,1.0265641E9,4.916544E9,1.496717E9,4.048108E9,0E0,0E0,0E0,0E0,0E0,0E0,0E0,0E0],"parents":[2147483647,0,0,1,1,2,2,3,3,4,4,5,5,6,6],"right_children":[2,4,6,8,10,12,14,-1,-1,-1,-1,-1,-1,-1,-1],"split_conditions":[5E-1,5E-1,3.0570686E0,6.8701715E0,2.293416E0,5E-1,3.067926E0,-2.2985291E0,1.2094375E2,1.0374593E2,-2.8131998E1,9.150093E0,2.9532602E2,8.637676E2,8.179005E1],"split_indices":[7,12,5,5,5,22,5,0,0,0,0,0,0,0,0],"split_type":[0,0,0,0,0,0,0,0,0,0,0,0,0,0,0],"sum_hessian":[2.0255E4,1.8336E4,1.919E3,1.6527E4,1.809E3,1.451E3,4.68E2,1.6419E4,1.08E2,8.81E2,9.28E2,1.422E3,2.9E1,1E1,4.58E2],"tree_param":{"num_deleted":"0","num_feature":"25","num_nodes":"15","size_leaf_vector":"0"}},{"base_weights":[-1.90836E1,-1.0273905E4,-8.023365E-1,-1.2391466E4,5.427781E3,5.2541587E3,-6.79667E1,-1.3589691E4,-3.3325088E3,-6.917423E3,1.6144869E4,3.0083606E3,4.396447E4,-1.8439625E4,-1.8014145E1],"categories":[],"categories_nodes":[],"categories_segments":[],"categories_sizes":[],"default_left":[true,true,true,true,true,true,true,false,false,false,false,false,false,false,false],"id":76,"left_children":[1,3,5,7,9,11,13,-1,-1,-1,-1,-1,-1,-1,-1],"loss_changes":[3.7775037E9,1.2498729E9,7.099764E9,3.0697472E8,7.3834285E8,2.1955822E10,1.822716E10,0E0,0E0,0E0,0E0,0E0,0E0,0E0,0E0],"parents":[2147483647,0,0,1,1,2,2,3,3,4,4,5,5,6,6],"right_children":[2,4,6,8,10,12,14,-1,-1,-1,-1,-1,-1,-1,-1],"split_conditions":[-1.5989616E2,5E-1,-1.4870705E2,1.6789087E1,4.32505E0,-1.4953568E2,-1.4543869E2,-5.4358765E2,-1.3330035E2,-2.766969E2,6.4579474E2,1.2033442E2,1.7585787E3,-7.3758496E2,-7.205658E-1],"split_indices":[1,14,1,2,2,1,1,0,0,0,0,0,0,0,0],"split_type":[0,0,0,0,0,0,0,0,0,0,0,0,0,0,0],"sum_hessian":[2.0149E4,3.5E1,2.0114E4,3.1E1,4E0,2.53E2,1.9861E4,2.7E1,4E0,2E0,2E0,2.4E2,1.3E1,5.3E1,1.9808E4],"tree_param":{"num_deleted":"0","num_feature":"25","num_nodes":"15","size_leaf_vector":"0"}},{"base_weights":[1.4810797E2,7.6116455E1,1.2322692E4,9.5955795E1,-1.2425251E4,6.829578E4,8.296587E3,8.567243E1,7.22995E4,-3.2081125E2,-1.5223369E4,1.0014286E4,1.672856E5,-1.6389666E3,3.1227623E4],"categories":[],"categories_nodes":[],"categories_segments":[],"categories_sizes":[],"default_left":[true,true,true,true,true,true,true,false,false,false,false,false,false,false,false],"id":77,"left_children":[1,3,5,7,9,11,13,-1,-1,-1,-1,-1,-1,-1,-1],"loss_changes":[1.7721223E10,4.9866563E9,2.6299185E10,1.4897184E10,1.0747955E9,4.3893826E10,2.5528568E10,0E0,0E0,0E0,0E0,0E0,0E0,0E0,0E0],"parents":[2147483647,0,0,1,1,2,2,3,3,4,4,5,5,6,6],"right_children":[2,4,6,8,10,12,14,-1,-1,-1,-1,-1,-1,-1,-1],"split_conditions":[6.571E1,6.52814E1,6.579692E1,6.5250046E1,-5E-1,1.6406368E1,1.7638123E1,3.4268973E0,2.89198E3,-1.283245E1,-6.0893475E2,4.0057144E2,6.691424E3,-6.555866E1,1.2491049E3],"split_indices":[0,0,0,0,2,2,2,0,0,0,0,0,0,0,0],"split_type":[0,0,0,0,0,0,0,0,0,0,0,0,0,0,0],"sum_hessian":[2.0219E4,2.0101E4,1.18E2,2.007E4,3.1E1,7E0,1.11E2,2.0068E4,2E0,6E0,2.5E1,5E0,2E0,7.8E1,3.3E1],"tree_param":{"num_deleted":"0","num_feature":"25","num_nodes":"15","size_leaf_vector":"0"}},{"base_weights":[1.781099E2,7.472951E1,1.1252281E3,-3.2800865E1,1.0611785E3,1.4505034E3,-7.8902985E2,-5.8087112E1,4.472662E3,-5.4870544E2,5.4084565E3,9.26143E2,4.6767837E3,-1.3656459E3,3.9175183E3],"categories":[],"categories_nodes":[],"categories_segments":[],"categories_sizes":[],"default_left":[true,true,true,true,true,true,true,false,false,false,false,false,false,false,false],"id":78,"left_children":[1,3,5,7,9,11,13,-1,-1,-1,-1,-1,-1,-1,-1],"loss_changes":[1.9817796E9,1.9358514E9,1.2412324E9,1.8750889E9,1.2557058E10,2.8770655E9,7.912191E8,0E0,0E0,0E0,0E0,0E0,0E0,0E0,0E0],"parents":[2147483647,0,0,1,1,2,2,3,3,4,4,5,5,6,6],"right_children":[2,4,6,8,10,12,14,-1,-1,-1,-1,-1,-1,-1,-1],"split_conditions":[5E-1,5E-1,3.6688862E0,7.016082E0,5E-1,3.0622575E0,5E-1,-2.3234844E0,1.7890648E2,-2.1948217E1,2.1633826E2,3.704572E1,1.8707135E2,-5.4625835E1,1.5670073E2],"split_indices":[7,12,5,5,18,5,18,0,0,0,0,0,0,0,0],"split_type":[0,0,0,0,0,0,0,0,0,0,0,0,0,0,0],"sum_hessian":[2.024E4,1.8249E4,1.991E3,1.6456E4,1.793E3,1.702E3,2.89E2,1.6365E4,9.1E1,1.309E3,4.84E2,1.465E3,2.37E2,2.58E2,3.1E1],"tree_param":{"num_deleted":"0","num_feature":"25","num_nodes":"15","size_leaf_vector":"0"}},{"base_weights":[1.1399256E2,1.2943972E3,-2.1733052E2,1.2496819E3,7.015764E4,-9.272866E1,-9.921571E2,2.9318745E3,-2.1805113E2,1.5346454E3,-1.751185E2,-2.8363352E3,-6.8248645E2],"categories":[],"categories_nodes":[],"categories_segments":[],"categories_sizes":[],"default_left":[true,true,true,true,false,true,true,false,false,false,false,false,false],"id":79,"left_children":[1,3,5,7,-1,9,11,-1,-1,-1,-1,-1,-1],"loss_changes":[7.899529E9,1.3556195E10,1.5226117E9,1.0925564E10,0E0,1.8220772E9,1.2460849E9,0E0,0E0,0E0,0E0,0E0,0E0],"parents":[2147483647,0,0,1,1,2,2,3,3,5,5,6,6],"right_children":[2,4,6,8,-1,10,12,-1,-1,-1,-1,-1,-1],"split_conditions":[-1.06201965E2,-1.0621251E2,4.041781E1,3.1454672E1,2.8063057E3,-9.991989E1,-1.0113854E2,1.1727498E2,-8.722045E0,6.1385815E1,-7.0047398E0,-1.1345341E2,-2.7299458E1],"split_indices":[1,1,0,3,0,1,1,0,0,0,0,0,0],"split_type":[0,0,0,0,0,0,0,0,0,0,0,0,0],"sum_hessian":[2.0197E4,4.426E3,1.5771E4,4.424E3,2E0,1.3587E4,2.184E3,2.061E3,2.363E3,6.54E2,1.2933E4,3.13E2,1.871E3],"tree_param":{"num_deleted":"0","num_feature":"25","num_nodes":"13","size_leaf_vector":"0"}},{"base_weights":[2.851566E1,-2.044845E2,2.352355E2,1.4408697E4,-2.1039432E2,2.9096822E4,2.2752292E2,-2.5759244E2,5.545038E2,6.129098E2,-7.826389E1],"categories":[],"categories_nodes":[],"categories_segments":[],"categories_sizes":[],"default_left":[true,true,true,false,true,false,true,false,false,false,false],"id":80,"left_children":[1,3,5,-1,7,-1,9,-1,-1,-1,-1],"loss_changes":[9.7442765E8,8.239612E8,2.3805292E9,0E0,3.433725E8,0E0,1.2631004E9,0E0,0E0,0E0,0E0],"parents":[2147483647,0,0,1,1,2,2,4,4,6,6],"right_children":[2,4,6,-1,8,-1,10,-1,-1,-1,-1],"split_conditions":[9.091635E0,-1.667929E1,9.093798E0,5.763479E2,5E-1,1.1638729E3,1.8635414E1,-1.0303698E1,2.2180151E1,2.4516392E1,-3.1305556E0],"split_indices":[2,2,2,0,7,0,2,0,0,0,0],"split_type":[0,0,0,0,0,0,0,0,0,0,0],"sum_hessian":[2.0229E4,9.51E3,1.0719E4,3E0,9.507E3,2E0,1.0717E4,8.955E3,5.52E2,4.741E3,5.976E3],"tree_param":{"num_deleted":"0","num_feature":"25","num_nodes":"11","size_leaf_vector":"0"}},{"base_weights":[1.18471985E2,1.007318E2,2.519046E3,1.9520866E2,-4.5104388E2,1.1996972E4,-2.5256196E3,3.2188068E2,-2.4809949E2,-3.070305E2,-1.1435173E3,4.5513657E3,1.383255E5,-3.3383555E3,-1.5185213E2],"categories":[],"categories_nodes":[],"categories_segments":[],"categories_sizes":[],